{"learner":{"attributes":{"scikit_learn":"{\"_estimator_type\": \"classifier\"}"},"feature_names":[],"feature_types":[],"gradient_booster":{"model":{"cats":{"enc":[],"feature_segments":[],"sorted_idx":[]},"gbtree_model_param":{"num_parallel_tree":"1","num_trees":"150"},"iteration_indptr":[0,1,2,3,4,5,6,7,8,9,10,11,12,13,14,15,16,17,18,19,20,21,22,23,24,25,26,27,28,29,30,31,32,33,34,35,36,37,38,39,40,41,42,43,44,45,46,47,48,49,50,51,52,53,54,55,56,57,58,59,60,61,62,63,64,65,66,67,68,69,70,71,72,73,74,75,76,77,78,79,80,81,82,83,84,85,86,87,88,89,90,91,92,93,94,95,96,97,98,99,100,101,102,103,104,105,106,107,108,109,110,111,112,113,114,115,116,117,118,119,120,121,122,123,124,125,126,127,128,129,130,131,132,133,134,135,136,137,138,139,140,141,142,143,144,145,146,147,148,149,150],"tree_info":[0,0,0,0,0,0,0,0,0,0,0,0,0,0,0,0,0,0,0,0,0,0,0,0,0,0,0,0,0,0,0,0,0,0,0,0,0,0,0,0,0,0,0,0,0,0,0,0,0,0,0,0,0,0,0,0,0,0,0,0,0,0,0,0,0,0,0,0,0,0,0,0,0,0,0,0,0,0,0,0,0,0,0,0,0,0,0,0,0,0,0,0,0,0,0,0,0,0,0,0,0,0,0,0,0,0,0,0,0,0,0,0,0,0,0,0,0,0,0,0,0,0,0,0,0,0,0,0,0,0,0,0,0,0,0,0,0,0,0,0,0,0,0,0,0,0,0,0,0,0],"trees":[{"base_weights":[-1.3899637E-2,-1.8723842E0,5.5802304E-1,-2.141381E0,-9.7585744E-1,1.3960152E-2,1.2833201E0,-2.3493044E0,-1.6270117E0,-1.664666E0,1.7580944E-1,8.654179E-1,-7.961209E-1,1.3950052E0,2.6952237E-1,-2.4387896E-1,-9.967691E-1,-2.08104E0,-4.3024507E-1,-2.0340102E0,-2.262399E-1,-1.02385335E-1,7.0703226E-1,1.2594702E0,-1.1389518E0,-1.2622381E0,8.5281146E-1,1.0563241E0,1.5283611E0,1.0517601E0,-5.860899E-1,4.1454937E-2,-1.7168473E-1,-5.0340082E-2,-2.1871006E-1,-1.1662318E-1,7.7704735E-2,-2.2919154E-1,-5.0391406E-2,-9.623759E-2,5.317196E-2,1.0382068E-1,-1.2659467E-2,5.8358252E-2,1.4639243E-1,-1.5846944E-1,1.0053636E-1,-1.8869543E-1,5.8358252E-2,1.1637961E-1,-1.02385335E-1,1.4544058E-1,5.330782E-2,4.1454937E-2,1.5424101E-1,-4.442571E-3,1.3066581E-1,-1.3866757E-1,1.0053636E-1],"categories":[],"categories_nodes":[],"categories_segments":[],"categories_sizes":[],"default_left":[0,0,0,0,0,0,0,0,0,0,0,0,0,0,0,0,0,0,0,0,0,0,0,0,0,0,0,0,0,0,0,0,0,0,0,0,0,0,0,0,0,0,0,0,0,0,0,0,0,0,0,0,0,0,0,0,0,0,0],"id":0,"left_children":[1,3,5,7,9,11,13,15,17,19,21,23,25,27,29,-1,31,33,35,37,39,-1,41,43,45,47,49,51,53,55,57,-1,-1,-1,-1,-1,-1,-1,-1,-1,-1,-1,-1,-1,-1,-1,-1,-1,-1,-1,-1,-1,-1,-1,-1,-1,-1,-1,-1],"loss_changes":[3.388935E2,1.6003937E1,9.619762E1,2.260254E0,1.5486336E1,9.748179E1,1.1455673E1,2.198471E0,9.7679405E0,5.95784E0,5.868473E0,5.585116E1,5.6748386E1,2.6259613E0,8.386177E0,0E0,4.8426056E0,1.2359581E0,6.822265E0,2.5888786E0,2.51663E0,0E0,1.8393967E0,7.167816E0,1.29144745E1,6.668293E1,1.0856042E1,5.423935E0,3.7965393E-1,1.8525486E0,9.276398E0,0E0,0E0,0E0,0E0,0E0,0E0,0E0,0E0,0E0,0E0,0E0,0E0,0E0,0E0,0E0,0E0,0E0,0E0,0E0,0E0,0E0,0E0,0E0,0E0,0E0,0E0,0E0,0E0],"parents":[2147483647,0,0,1,1,2,2,3,3,4,4,5,5,6,6,7,7,8,8,9,9,10,10,11,11,12,12,13,13,14,14,16,16,17,17,18,18,19,19,20,20,22,22,23,23,24,24,25,25,26,26,27,27,28,28,29,29,30,30],"right_children":[2,4,6,8,10,12,14,16,18,20,22,24,26,28,30,-1,32,34,36,38,40,-1,42,44,46,48,50,52,54,56,58,-1,-1,-1,-1,-1,-1,-1,-1,-1,-1,-1,-1,-1,-1,-1,-1,-1,-1,-1,-1,-1,-1,-1,-1,-1,-1,-1,-1],"split_conditions":[-9.141032E-1,1.9348545E0,1.1445583E0,6.561187E-1,1.1445583E0,1.7417941E-2,1.2729641E0,1.4259558E0,1.7130615E0,2.4954896E0,-1.1356635E0,1.2841511E0,1.9348545E0,-6.6413546E-1,-2.742448E-2,-2.4387896E-1,-1.1761847E0,-1.3002074E0,1.1445583E0,1.7130615E0,-1.5057254E-1,-1.02385335E-1,5.375952E-1,-8.3698213E-1,1.7130615E0,1.7130615E0,1.3165069E0,-1.1247003E-2,-8.6365116E-1,-1.1826754E0,1.7130615E0,4.1454937E-2,-1.7168473E-1,-5.0340082E-2,-2.1871006E-1,-1.1662318E-1,7.7704735E-2,-2.2919154E-1,-5.0391406E-2,-9.623759E-2,5.317196E-2,1.0382068E-1,-1.2659467E-2,5.8358252E-2,1.4639243E-1,-1.5846944E-1,1.0053636E-1,-1.8869543E-1,5.8358252E-2,1.1637961E-1,-1.02385335E-1,1.4544058E-1,5.330782E-2,4.1454937E-2,1.5424101E-1,-4.442571E-3,1.3066581E-1,-1.3866757E-1,1.0053636E-1],"split_indices":[22,27,25,20,25,24,23,7,26,28,8,23,27,0,24,0,20,9,25,26,4,0,19,0,26,26,23,24,22,0,26,0,0,0,0,0,0,0,0,0,0,0,0,0,0,0,0,0,0,0,0,0,0,0,0,0,0,0,0],"split_type":[0,0,0,0,0,0,0,0,0,0,0,0,0,0,0,0,0,0,0,0,0,0,0,0,0,0,0,0,0,0,0,0,0,0,0,0,0,0,0,0,0,0,0,0,0,0,0,0,0,0,0,0,0,0,0,0,0,0,0],"sum_hessian":[3.1685272E2,7.40266E1,2.4282611E2,5.587358E1,1.815302E1,1.3933032E2,1.0349579E2,3.7249054E1,1.8624527E1,1.1080415E1,7.072605E0,6.789701E1,7.143331E1,9.288688E1,1.0608908E1,3.4184258E1,3.0647955E0,1.2966443E1,5.658084E0,8.487126E0,2.5932887E0,1.886028E0,5.1865773E0,5.705235E1,1.0844662E1,5.587358E1,1.55597315E1,2.8761929E1,6.4124954E1,5.422331E0,5.1865773E0,1.1787676E0,1.886028E0,1.1787676E0,1.1787675E1,3.5363026E0,2.1217816E0,6.8368516E0,1.6502745E0,1.1787676E0,1.414521E0,3.5363026E0,1.6502745E0,1.414521E1,4.290714E1,9.1943865E0,1.6502745E0,4.172837E1,1.414521E1,1.3673703E1,1.886028E0,1.5323977E1,1.343795E1,1.1787676E0,6.2946186E1,1.1787676E0,4.243563E0,3.5363026E0,1.6502745E0],"tree_param":{"num_deleted":"0","num_feature":"33","num_nodes":"59","size_leaf_vector":"1"}},{"base_weights":[3.8860363E-4,-1.6373423E0,5.4276645E-1,-1.8837351E0,-8.0724514E-1,1.1101315E0,7.5438023E-3,-1.9863535E0,-1.0928663E0,1.391548E-1,-1.4778732E0,1.3099473E0,-1.6756359E-1,-8.031785E-1,1.0311537E0,-3.9959606E-2,-2.0168808E0,-2.4515737E-2,-1.7310654E-1,-5.0659794E-1,8.361951E-1,-1.7700102E0,1.6509745E-3,3.3900574E-1,1.3341194E0,4.290117E-1,-1.2662652E0,-1.1824014E0,1.1857713E0,1.2225977E0,-4.5757055E-1,-4.6003416E-2,-2.04542E-1,1.01298116E-1,-8.770981E-2,1.9533357E-2,-1.4020845E-1,-7.8290915E-3,1.15448095E-1,-2.0144434E-1,-1.2792352E-3,8.961087E-2,-3.5932224E-2,1.4704579E-1,1.1257803E-1,-2.824888E-2,1.0338501E-1,2.2441428E-2,-1.8688886E-1,-1.5717535E-1,6.1300363E-2,6.753765E-3,1.4010808E-1,6.856098E-2,1.3999216E-1,-1.06101215E-1,9.5573656E-2],"categories":[],"categories_nodes":[],"categories_segments":[],"categories_sizes":[],"default_left":[0,0,0,0,0,0,0,0,0,0,0,0,0,0,0,0,0,0,0,0,0,0,0,0,0,0,0,0,0,0,0,0,0,0,0,0,0,0,0,0,0,0,0,0,0,0,0,0,0,0,0,0,0,0,0,0,0],"id":1,"left_children":[1,3,5,7,9,11,13,15,17,19,21,23,25,27,29,-1,31,33,-1,35,37,39,-1,41,43,45,47,49,51,53,55,-1,-1,-1,-1,-1,-1,-1,-1,-1,-1,-1,-1,-1,-1,-1,-1,-1,-1,-1,-1,-1,-1,-1,-1,-1,-1],"loss_changes":[2.7903638E2,1.4463791E1,7.1651634E1,2.6592255E0,1.2669386E1,2.946318E1,1.0243479E2,1.6865692E0,6.133806E0,4.50089E0,5.084402E0,1.8751526E0,1.12779455E1,5.33596E1,1.6107098E1,0E0,1.291153E0,4.782247E0,0E0,3.620922E0,1.4681339E0,4.1385365E0,0E0,1.7807094E0,1.0832977E0,5.181201E0,5.8239956E0,4.1756737E1,2.6814575E0,3.668724E0,6.9357834E0,0E0,0E0,0E0,0E0,0E0,0E0,0E0,0E0,0E0,0E0,0E0,0E0,0E0,0E0,0E0,0E0,0E0,0E0,0E0,0E0,0E0,0E0,0E0,0E0,0E0,0E0],"parents":[2147483647,0,0,1,1,2,2,3,3,4,4,5,5,6,6,7,7,8,8,9,9,10,10,11,11,12,12,13,13,14,14,16,16,17,17,19,19,20,20,21,21,23,23,24,24,25,25,26,26,27,27,28,28,29,29,30,30],"right_children":[2,4,6,8,10,12,14,16,18,20,22,24,26,28,30,-1,32,34,-1,36,38,40,-1,42,44,46,48,50,52,54,56,-1,-1,-1,-1,-1,-1,-1,-1,-1,-1,-1,-1,-1,-1,-1,-1,-1,-1,-1,-1,-1,-1,-1,-1,-1,-1],"split_conditions":[-9.037081E-1,1.9348545E0,-1.1247003E-2,2.4954896E0,-1.5486443E-1,1.2841511E0,1.1445583E0,-1.6263547E0,4.10942E-5,1.1445583E0,1.7130615E0,-8.347119E-1,2.726932E-1,2.4954896E0,1.2094004E0,-3.9959606E-2,-1.6237469E0,7.922994E-2,-1.7310654E-1,3.5723636E-1,-9.485062E-1,1.425836E0,1.6509745E-3,-1.2325546E0,2.6982534E-1,2.7251057E-2,-9.0890694E-1,1.9348545E0,-9.234054E-1,-6.6413546E-1,1.7130615E0,-4.6003416E-2,-2.04542E-1,1.01298116E-1,-8.770981E-2,1.9533357E-2,-1.4020845E-1,-7.8290915E-3,1.15448095E-1,-2.0144434E-1,-1.2792352E-3,8.961087E-2,-3.5932224E-2,1.4704579E-1,1.1257803E-1,-2.824888E-2,1.0338501E-1,2.2441428E-2,-1.8688886E-1,-1.5717535E-1,6.1300363E-2,6.753765E-3,1.4010808E-1,6.856098E-2,1.3999216E-1,-1.06101215E-1,9.5573656E-2],"split_indices":[22,27,24,28,24,23,25,8,24,25,26,22,7,28,23,0,9,21,0,23,6,6,0,9,18,0,21,27,0,0,26,0,0,0,0,0,0,0,0,0,0,0,0,0,0,0,0,0,0,0,0,0,0,0,0,0,0],"split_type":[0,0,0,0,0,0,0,0,0,0,0,0,0,0,0,0,0,0,0,0,0,0,0,0,0,0,0,0,0,0,0,0,0,0,0,0,0,0,0,0,0,0,0,0,0,0,0,0,0,0,0,0,0,0,0,0,0],"sum_hessian":[3.1213452E2,7.715206E1,2.3498245E2,5.8514317E1,1.8637745E1,1.1354473E2,1.2143772E2,5.0455853E1,8.058464E0,8.058282E0,1.0579462E1,9.816733E1,1.5377401E1,6.7885895E1,5.3551826E1,1.2183412E0,4.923751E1,3.401963E0,4.656501E0,4.3248587E0,3.7334237E0,8.695196E0,1.8842666E0,2.7495258E0,9.54178E1,1.036106E1,5.0163417E0,5.7355698E1,1.0530202E1,4.7608345E1,5.9434805E0,1.194514E0,4.8042995E1,1.4497037E0,1.9522594E0,2.8627484E0,1.4621104E0,1.1586009E0,2.5748227E0,7.5048695E0,1.1903265E0,1.3718717E0,1.3776541E0,5.401321E1,4.1404594E1,5.005638E0,5.355422E0,1.6247884E0,3.3915534E0,4.7236534E1,1.0119162E1,1.9122727E0,8.6179285E0,1.3026565E1,3.458178E1,4.339786E0,1.6036942E0],"tree_param":{"num_deleted":"0","num_feature":"33","num_nodes":"57","size_leaf_vector":"1"}},{"base_weights":[-2.740775E-3,-1.4624803E0,4.9079835E-1,-1.0237558E0,-1.8627917E0,7.1699554E-1,-9.442032E-1,-1.5961689E0,-2.1694283E-1,-3.188167E-2,-1.9045167E-1,1.2216594E0,2.6580545E-1,-1.6062379E0,2.0799376E-1,-1.7729689E0,-3.7425175E-1,-7.1678424E-1,1.207391E-1,3.1086493E-1,1.2544839E0,-4.3007633E-1,1.119032E0,-1.8032466E0,-3.095483E-1,9.8355836E-1,-5.3387284E-1,7.532121E-3,-1.8998934E-1,-9.961048E-2,3.346761E-2,-1.440654E-1,5.697745E-2,9.0755224E-2,-2.9347792E-2,9.551316E-2,1.350668E-1,-9.490757E-2,1.1341604E-1,5.4095E-2,1.3296217E-1,-2.7096558E-2,-1.9225913E-1,5.7652533E-2,-1.072127E-1,3.819082E-3,1.2298013E-1,-1.10800646E-1,9.995418E-2],"categories":[],"categories_nodes":[],"categories_segments":[],"categories_sizes":[],"default_left":[0,0,0,0,0,0,0,0,0,0,0,0,0,0,0,0,0,0,0,0,0,0,0,0,0,0,0,0,0,0,0,0,0,0,0,0,0,0,0,0,0,0,0,0,0,0,0,0,0],"id":2,"left_children":[1,3,5,7,9,11,13,15,17,-1,-1,19,21,23,25,27,29,31,-1,33,35,37,39,41,43,45,47,-1,-1,-1,-1,-1,-1,-1,-1,-1,-1,-1,-1,-1,-1,-1,-1,-1,-1,-1,-1,-1,-1],"loss_changes":[2.2070773E2,1.16875305E1,7.499246E1,1.7734978E1,1.9216766E0,4.4837845E1,2.4443367E1,4.2502403E0,1.32575245E1,0E0,0E0,2.400711E0,6.341677E1,4.598915E0,7.670531E0,4.741749E0,2.1596348E0,1.3404572E1,0E0,1.916661E0,1.294632E0,4.905951E1,5.111168E0,2.6459274E0,3.2329633E0,1.4483385E0,7.2662697E0,0E0,0E0,0E0,0E0,0E0,0E0,0E0,0E0,0E0,0E0,0E0,0E0,0E0,0E0,0E0,0E0,0E0,0E0,0E0,0E0,0E0,0E0],"parents":[2147483647,0,0,1,1,2,2,3,3,4,4,5,5,6,6,7,7,8,8,11,11,12,12,13,13,14,14,15,15,16,16,17,17,19,19,20,20,21,21,22,22,23,23,24,24,25,25,26,26],"right_children":[2,4,6,8,10,12,14,16,18,-1,-1,20,22,24,26,28,30,32,-1,34,36,38,40,42,44,46,48,-1,-1,-1,-1,-1,-1,-1,-1,-1,-1,-1,-1,-1,-1,-1,-1,-1,-1,-1,-1,-1,-1],"split_conditions":[-9.037081E-1,4.10942E-5,1.2841511E0,1.1445583E0,-1.5894372E0,4.10942E-5,1.1445583E0,2.4954896E0,1.7130615E0,-3.188167E-2,-1.9045167E-1,-7.906792E-1,1.1445583E0,1.9348545E0,-3.8111904E-1,-1.5165997E0,-6.294743E-1,1.9348545E0,1.207391E-1,-9.2624766E-1,-8.3698213E-1,1.7130615E0,-6.6413546E-1,-1.4171565E0,-6.268963E-1,-1.2640359E0,1.9348545E0,7.532121E-3,-1.8998934E-1,-9.961048E-2,3.346761E-2,-1.440654E-1,5.697745E-2,9.0755224E-2,-2.9347792E-2,9.551316E-2,1.350668E-1,-9.490757E-2,1.1341604E-1,5.4095E-2,1.3296217E-1,-2.7096558E-2,-1.9225913E-1,5.7652533E-2,-1.072127E-1,3.819082E-3,1.2298013E-1,-1.10800646E-1,9.995418E-2],"split_indices":[22,24,23,25,20,24,25,28,26,0,0,22,25,27,24,18,9,27,0,9,0,26,0,7,16,21,27,0,0,0,0,0,0,0,0,0,0,0,0,0,0,0,0,0,0,0,0,0,0],"split_type":[0,0,0,0,0,0,0,0,0,0,0,0,0,0,0,0,0,0,0,0,0,0,0,0,0,0,0,0,0,0,0,0,0,0,0,0,0,0,0,0,0,0,0,0,0,0,0,0,0],"sum_hessian":[3.0435562E2,7.6406136E1,2.279495E2,3.8151306E1,3.8254826E1,1.9734296E2,3.0606527E1,2.174525E1,1.6406057E1,1.2339833E0,3.7020844E1,9.23454E1,1.0499756E2,1.9187576E1,1.1418952E1,1.8602646E1,3.1426036E0,1.2511985E1,3.8940718E0,3.5765328E0,8.876887E1,5.81043E1,4.689326E1,1.6317734E1,2.8698409E0,5.4234076E0,5.995545E0,1.2215052E0,1.7381142E1,1.4583185E0,1.6842852E0,7.9303036E0,4.581681E0,1.5472072E0,2.0293255E0,2.4244226E1,6.452464E1,4.3923992E1,1.4180309E1,1.3474272E1,3.341899E1,1.4154211E0,1.4902313E1,1.4402872E0,1.4295535E0,1.3594288E0,4.0639787E0,4.5641017E0,1.4314431E0],"tree_param":{"num_deleted":"0","num_feature":"33","num_nodes":"49","size_leaf_vector":"1"}},{"base_weights":[1.2712093E-2,-1.2536002E0,4.9201608E-1,-8.847159E-1,-1.6212915E0,1.0114044E0,6.240217E-3,-1.4147444E0,-6.980361E-2,-3.1413493E-1,-1.6974115E0,1.2076808E0,-1.4145884E-1,-5.9130573E-1,8.311443E-1,-1.5825533E0,-1.1791344E-1,4.3422768E-1,-1.4323477E-1,-6.848537E-2,1.9663522E-2,-1.7475724E0,-2.2295635E-2,2.814298E-2,1.2231661E0,-7.36361E-1,8.325461E-1,-9.31529E-1,1.0961167E0,1.0506902E0,-6.346964E-1,9.966869E-3,-1.679133E-1,-7.829664E-2,8.532914E-2,3.5007917E-3,1.3284165E-1,-5.3339195E-2,-1.7921802E-1,9.608236E-2,1.2821704E-1,-1.1537858E-1,9.943274E-2,-4.308606E-2,1.2224775E-1,-1.3477157E-1,7.659817E-2,1.3807674E-1,-3.778481E-2,4.295081E-2,1.261824E-1,-1.3921128E-1,9.920508E-2],"categories":[],"categories_nodes":[],"categories_segments":[],"categories_sizes":[],"default_left":[0,0,0,0,0,0,0,0,0,0,0,0,0,0,0,0,0,0,0,0,0,0,0,0,0,0,0,0,0,0,0,0,0,0,0,0,0,0,0,0,0,0,0,0,0,0,0,0,0,0,0,0,0],"id":3,"left_children":[1,3,5,7,9,11,13,15,17,19,21,23,25,27,29,31,33,35,-1,-1,-1,37,-1,-1,39,41,43,45,47,49,51,-1,-1,-1,-1,-1,-1,-1,-1,-1,-1,-1,-1,-1,-1,-1,-1,-1,-1,-1,-1,-1,-1],"loss_changes":[1.860751E2,9.983536E0,5.6100998E1,1.9002502E1,3.5420837E0,2.4487892E1,5.7627174E1,5.633297E0,1.3313319E1,7.937882E-1,2.45607E0,9.7442627E-1,1.0190795E1,3.9947605E1,1.6471016E1,4.001438E0,3.3451047E0,5.042981E0,0E0,0E0,0E0,1.0515442E0,0E0,0E0,1.6313171E-1,8.944002E0,3.8456426E0,4.1279114E1,5.487892E0,5.109169E0,1.0031225E1,0E0,0E0,0E0,0E0,0E0,0E0,0E0,0E0,0E0,0E0,0E0,0E0,0E0,0E0,0E0,0E0,0E0,0E0,0E0,0E0,0E0,0E0],"parents":[2147483647,0,0,1,1,2,2,3,3,4,4,5,5,6,6,7,7,8,8,9,9,10,10,11,11,12,12,13,13,14,14,15,15,16,16,17,17,21,21,24,24,25,25,26,26,27,27,28,28,29,29,30,30],"right_children":[2,4,6,8,10,12,14,16,18,20,22,24,26,28,30,32,34,36,-1,-1,-1,38,-1,-1,40,42,44,46,48,50,52,-1,-1,-1,-1,-1,-1,-1,-1,-1,-1,-1,-1,-1,-1,-1,-1,-1,-1,-1,-1,-1,-1],"split_conditions":[-8.6365116E-1,4.10942E-5,4.10942E-5,1.1445583E0,-1.5775884E0,1.2841511E0,1.1445583E0,2.4954896E0,8.079072E-1,-1.3797909E-1,-9.037081E-1,-8.347119E-1,1.1445583E0,2.4954896E0,1.2094004E0,-1.5486851E0,1.9348545E0,1.7130615E0,-1.4323477E-1,-6.848537E-2,1.9663522E-2,-1.6430352E0,-2.2295635E-2,2.814298E-2,-9.625216E-1,1.7130615E0,-1.3330935E0,1.9348545E0,1.2311182E0,-6.6413546E-1,1.7130615E0,9.966869E-3,-1.679133E-1,-7.829664E-2,8.532914E-2,3.5007917E-3,1.3284165E-1,-5.3339195E-2,-1.7921802E-1,9.608236E-2,1.2821704E-1,-1.1537858E-1,9.943274E-2,-4.308606E-2,1.2224775E-1,-1.3477157E-1,7.659817E-2,1.3807674E-1,-3.778481E-2,4.295081E-2,1.261824E-1,-1.3921128E-1,9.920508E-2],"split_indices":[22,24,24,25,4,23,25,28,9,9,22,22,25,28,23,18,27,26,0,0,0,17,0,0,8,26,24,27,17,0,26,0,0,0,0,0,0,0,0,0,0,0,0,0,0,0,0,0,0,0,0,0,0],"split_type":[0,0,0,0,0,0,0,0,0,0,0,0,0,0,0,0,0,0,0,0,0,0,0,0,0,0,0,0,0,0,0,0,0,0,0,0,0,0,0,0,0,0,0,0,0,0,0,0,0,0,0,0,0],"sum_hessian":[3.0455853E2,8.318084E1,2.213777E2,4.322337E1,3.995747E1,1.0646451E2,1.1491319E2,2.5743456E1,1.7479914E1,2.4809332E0,3.7476536E1,9.093514E1,1.5529371E1,6.680443E1,4.810877E1,2.2598858E1,3.144598E0,1.325715E1,4.222764E0,1.2400644E0,1.2408687E0,3.6064396E1,1.4121425E0,1.8105551E0,8.912458E1,9.7923765E0,5.736995E0,5.5967957E1,1.08364725E1,4.208823E1,6.020536E0,1.225265E0,2.1373592E1,1.9815258E0,1.1630721E0,9.883645E0,3.3735044E0,1.7371864E0,3.432721E1,1.9538292E1,6.958629E1,8.158069E0,1.6343077E0,1.3282852E0,4.40871E0,4.5113365E1,1.085459E1,9.135468E0,1.7010044E0,1.1446243E1,3.0641987E1,4.206307E0,1.814229E0],"tree_param":{"num_deleted":"0","num_feature":"33","num_nodes":"53","size_leaf_vector":"1"}},{"base_weights":[-1.0591257E-2,-1.1984737E0,4.3425944E-1,-1.4392073E0,-5.5361784E-1,6.2918955E-1,-7.9561573E-1,-1.5617361E0,-7.4871737E-1,9.3061465E-1,-8.624316E-1,1.1295387E0,1.8554185E-1,-1.268711E0,1.8188652E-1,-1.590257E0,-2.3068532E-2,2.2626132E-1,-1.3809593E-1,1.17304465E-2,1.18325524E-1,-1.10769E0,1.787768E-1,7.909895E-1,1.2474983E0,-3.676224E-1,9.971382E-1,3.5331937E-4,-1.502993E0,-2.7210367E-1,1.0782351E-1,-2.8606756E-2,-1.6188227E-1,1.0413822E-1,-4.722965E-2,-4.603045E-2,-1.4969324E-1,1.0722995E-1,-5.6152087E-2,-1.7277403E-2,9.003441E-2,3.5171416E-2,1.2612745E-1,-8.293762E-2,1.1201968E-1,3.1285163E-2,1.193905E-1,5.3046025E-2,-7.013543E-2,-1.4084714E-2,-1.6662267E-1,-6.646453E-2,9.3610846E-2],"categories":[],"categories_nodes":[],"categories_segments":[],"categories_sizes":[],"default_left":[0,0,0,0,0,0,0,0,0,0,0,0,0,0,0,0,0,0,0,0,0,0,0,0,0,0,0,0,0,0,0,0,0,0,0,0,0,0,0,0,0,0,0,0,0,0,0,0,0,0,0,0,0],"id":4,"left_children":[1,3,5,7,9,11,13,15,17,19,21,23,25,27,29,31,-1,33,-1,-1,-1,35,37,39,41,43,45,47,49,51,-1,-1,-1,-1,-1,-1,-1,-1,-1,-1,-1,-1,-1,-1,-1,-1,-1,-1,-1,-1,-1,-1,-1],"loss_changes":[1.575833E2,1.1815941E1,5.2518845E1,3.7831573E0,1.1670536E1,4.1489403E1,1.4162926E1,1.4854965E0,6.9345775E0,7.9912853E-1,5.342684E0,2.5310287E0,4.5604103E1,6.073761E0,4.647618E0,1.3102341E0,0E0,3.3873954E0,0E0,0E0,0E0,3.4547863E0,3.7122414E0,2.8424234E0,3.41156E-1,4.2597992E1,5.1618614E0,1.928056E0,3.599392E0,4.369493E0,0E0,0E0,0E0,0E0,0E0,0E0,0E0,0E0,0E0,0E0,0E0,0E0,0E0,0E0,0E0,0E0,0E0,0E0,0E0,0E0,0E0,0E0,0E0],"parents":[2147483647,0,0,1,1,2,2,3,3,4,4,5,5,6,6,7,7,8,8,9,9,10,10,11,11,12,12,13,13,14,14,15,15,17,17,21,21,22,22,23,23,24,24,25,25,26,26,27,27,28,28,29,29],"right_children":[2,4,6,8,10,12,14,16,18,20,22,24,26,28,30,32,-1,34,-1,-1,-1,36,38,40,42,44,46,48,50,52,-1,-1,-1,-1,-1,-1,-1,-1,-1,-1,-1,-1,-1,-1,-1,-1,-1,-1,-1,-1,-1,-1,-1],"split_conditions":[-9.037081E-1,1.7130615E0,1.2841511E0,2.4954896E0,-1.0639608E0,4.10942E-5,1.1445583E0,1.6385782E0,4.10942E-5,-1.1422228E0,1.9348545E0,-7.505588E-1,1.1445583E0,-1.0545195E0,1.7130615E0,-1.6281629E0,-2.3068532E-2,7.922994E-2,-1.3809593E-1,1.17304465E-2,1.18325524E-1,-1.6455394E-1,-9.645256E-1,-1.3488808E0,-1.6773839E0,1.7130615E0,-7.505588E-1,2.726932E-1,-1.1208857E0,1.9348545E0,1.0782351E-1,-2.8606756E-2,-1.6188227E-1,1.0413822E-1,-4.722965E-2,-4.603045E-2,-1.4969324E-1,1.0722995E-1,-5.6152087E-2,-1.7277403E-2,9.003441E-2,3.5171416E-2,1.2612745E-1,-8.293762E-2,1.1201968E-1,3.1285163E-2,1.193905E-1,5.3046025E-2,-7.013543E-2,-1.4084714E-2,-1.6662267E-1,-6.646453E-2,9.3610846E-2],"split_indices":[22,26,23,28,21,24,25,21,24,24,27,0,25,8,26,18,0,21,0,0,0,24,4,16,18,26,0,7,16,27,0,0,0,0,0,0,0,0,0,0,0,0,0,0,0,0,0,0,0,0,0,0,0],"split_type":[0,0,0,0,0,0,0,0,0,0,0,0,0,0,0,0,0,0,0,0,0,0,0,0,0,0,0,0,0,0,0,0,0,0,0,0,0,0,0,0,0,0,0,0,0,0,0,0,0,0,0,0,0],"sum_hessian":[2.9622528E2,8.0247284E1,2.1597801E2,5.7536343E1,2.2710945E1,1.8685126E2,2.9126741E1,4.7793514E1,9.742827E0,3.5646882E0,1.9146257E1,8.708742E1,9.976385E1,1.9426647E1,9.700093E0,4.6600254E1,1.1932604E0,4.085192E0,5.6576357E0,1.1919217E0,2.3727665E0,1.5444441E1,3.7018158E0,2.4494045E1,6.259337E1,5.9652916E1,4.0110935E1,3.1830618E0,1.6243586E1,6.9011645E0,2.7989287E0,1.2348788E0,4.5365376E1,1.6588187E0,2.4263732E0,6.6187468E0,8.825694E0,1.4741179E0,2.227698E0,2.4369316E0,2.2057114E1,1.3498623E0,6.1243507E1,4.586194E1,1.37909775E1,9.5364485E0,3.0574486E1,1.9522631E0,1.2307987E0,1.9376028E0,1.4305984E1,5.5484095E0,1.3527546E0],"tree_param":{"num_deleted":"0","num_feature":"33","num_nodes":"53","size_leaf_vector":"1"}},{"base_weights":[6.5394293E-4,-1.1290898E0,4.1035575E-1,-1.3064501E0,-5.409383E-1,9.134637E-1,-1.29206795E-2,-1.4795239E0,-8.359104E-1,-1.0072558E0,1.23315796E-1,1.1230919E0,-5.300156E-2,-4.8583284E-1,7.695567E-1,-1.4956096E-2,-1.5146827E0,-1.277268E0,-1.682293E-2,-1.2794881E0,-3.0181918E-2,6.5936977E-1,-7.442585E-1,8.4819764E-1,1.2267517E0,-3.936027E-1,1.1714443E-1,-7.770173E-1,1.0864443E0,9.5081675E-1,-4.700917E-1,-2.6947653E-2,-1.5464976E-1,8.520305E-3,-1.4769116E-1,7.2410785E-2,-9.937646E-2,-1.1572192E-2,-1.4399774E-1,-6.3942336E-2,5.553621E-2,9.724067E-2,-3.5483804E-2,-1.1973852E-1,1.5160993E-2,9.3288474E-2,-1.7536556E-2,4.091465E-2,1.241709E-1,-9.6611194E-2,6.0240205E-2,-1.1523719E-1,5.1501155E-2,1.2868987E-1,-3.835889E-2,3.4147274E-2,1.1956286E-1,-1.00262456E-1,8.993037E-2],"categories":[],"categories_nodes":[],"categories_segments":[],"categories_sizes":[],"default_left":[0,0,0,0,0,0,0,0,0,0,0,0,0,0,0,0,0,0,0,0,0,0,0,0,0,0,0,0,0,0,0,0,0,0,0,0,0,0,0,0,0,0,0,0,0,0,0,0,0,0,0,0,0,0,0,0,0,0,0],"id":5,"left_children":[1,3,5,7,9,11,13,15,17,19,21,23,25,27,29,-1,31,33,35,37,39,41,43,45,47,49,-1,51,53,55,57,-1,-1,-1,-1,-1,-1,-1,-1,-1,-1,-1,-1,-1,-1,-1,-1,-1,-1,-1,-1,-1,-1,-1,-1,-1,-1,-1,-1],"loss_changes":[1.3678201E2,7.4973984E0,4.619454E1,3.6266708E0,6.297094E0,2.0137718E1,4.43217E1,1.7542725E0,6.6150637E0,3.1048021E0,4.7277884E0,1.2814102E0,8.2261915E0,3.5015163E1,1.0586748E1,0E0,1.2138901E0,3.3671722E0,6.106116E0,1.5551081E0,1.6391283E0,2.3012154E0,1.7846658E0,2.3786373E0,1.8817139E-1,9.315296E0,0E0,3.1417198E1,4.0532827E0,5.5140114E0,5.5876136E0,0E0,0E0,0E0,0E0,0E0,0E0,0E0,0E0,0E0,0E0,0E0,0E0,0E0,0E0,0E0,0E0,0E0,0E0,0E0,0E0,0E0,0E0,0E0,0E0,0E0,0E0,0E0,0E0],"parents":[2147483647,0,0,1,1,2,2,3,3,4,4,5,5,6,6,7,7,8,8,9,9,10,10,11,11,12,12,13,13,14,14,16,16,17,17,18,18,19,19,20,20,21,21,22,22,23,23,24,24,25,25,27,27,28,28,29,29,30,30],"right_children":[2,4,6,8,10,12,14,16,18,20,22,24,26,28,30,-1,32,34,36,38,40,42,44,46,48,50,-1,52,54,56,58,-1,-1,-1,-1,-1,-1,-1,-1,-1,-1,-1,-1,-1,-1,-1,-1,-1,-1,-1,-1,-1,-1,-1,-1,-1,-1,-1,-1],"split_conditions":[-9.037081E-1,1.9348545E0,4.10942E-5,1.7130615E0,1.1445583E0,1.2841511E0,1.1445583E0,-1.5388768E0,1.1445583E0,2.4954896E0,4.5615843E-1,-7.505588E-1,1.7130615E0,2.4954896E0,1.2094004E0,-1.4956096E-2,-1.6281629E0,-1.4099046E0,-8.588276E-2,-1.4035065E0,-5.4042524E-1,5.681274E-1,6.270768E-1,1.4977821E0,-1.6932703E0,1.1445583E0,1.1714443E-1,1.7130615E0,1.2094004E0,-6.6413546E-1,1.9348545E0,-2.6947653E-2,-1.5464976E-1,8.520305E-3,-1.4769116E-1,7.2410785E-2,-9.937646E-2,-1.1572192E-2,-1.4399774E-1,-6.3942336E-2,5.553621E-2,9.724067E-2,-3.5483804E-2,-1.1973852E-1,1.5160993E-2,9.3288474E-2,-1.7536556E-2,4.091465E-2,1.241709E-1,-9.6611194E-2,6.0240205E-2,-1.1523719E-1,5.1501155E-2,1.2868987E-1,-3.835889E-2,3.4147274E-2,1.1956286E-1,-1.00262456E-1,8.993037E-2],"split_indices":[22,27,24,26,25,23,25,16,25,28,7,0,26,28,23,0,18,8,24,20,9,19,16,6,18,25,0,26,23,0,27,0,0,0,0,0,0,0,0,0,0,0,0,0,0,0,0,0,0,0,0,0,0,0,0,0,0,0,0],"split_type":[0,0,0,0,0,0,0,0,0,0,0,0,0,0,0,0,0,0,0,0,0,0,0,0,0,0,0,0,0,0,0,0,0,0,0,0,0,0,0,0,0,0,0,0,0,0,0,0,0,0,0,0,0,0,0,0,0,0,0],"sum_hessian":[2.9351508E2,7.7647606E1,2.1586746E2,5.871922E1,1.8928387E1,9.810336E1,1.1776411E2,4.1361385E1,1.7357836E1,1.0817765E1,8.110622E0,8.048413E1,1.7619232E1,7.3638016E1,4.412609E1,1.2005764E0,4.016081E1,1.0916306E1,6.44153E0,8.218434E0,2.599331E0,5.1614604E0,2.9491618E0,2.4553478E1,5.593065E1,1.4315633E1,3.3035989E0,6.25581E1,1.107991E1,3.870036E1,5.42573E0,1.2364749E0,3.892433E1,1.4684002E0,9.447906E0,3.8104303E0,2.6311002E0,1.2045876E0,7.013847E0,1.2287924E0,1.3705385E0,3.9756002E0,1.18586E0,1.7350278E0,1.2141339E0,2.2759043E1,1.794436E0,1.5142066E0,5.4416443E1,9.10947E0,5.206163E0,4.8559032E1,1.3999069E1,9.859978E0,1.2199327E0,1.1778401E1,2.6921959E1,4.0993876E0,1.3263425E0],"tree_param":{"num_deleted":"0","num_feature":"33","num_nodes":"59","size_leaf_vector":"1"}},{"base_weights":[1.4773644E-2,-1.0208306E0,4.0745127E-1,-1.306099E0,-6.199163E-1,8.687167E-1,7.43796E-3,9.756737E-3,-1.3558642E0,-2.4531487E-2,-1.1768535E0,1.0429392E0,2.1361854E-2,-4.662922E-1,7.1083456E-1,-7.089693E-1,-1.4643371E0,-3.9188963E-1,9.2235404E-1,-1.398227E-1,-1.9922864E-1,1.1748734E0,8.456658E-1,5.476531E-1,-9.4723076E-1,-7.930425E-1,7.9188406E-1,9.044066E-1,-3.8891438E-1,2.3377853E-2,-9.900415E-2,-1.6834008E-2,-1.5106572E-1,-9.637638E-2,4.9439084E-2,1.1862868E-1,2.3121673E-3,-9.134571E-2,9.290626E-2,1.1937242E-1,2.3426455E-2,9.6280105E-2,1.8883634E-2,-5.438147E-2,9.928255E-2,2.3496788E-2,-1.375526E-1,-1.2479494E-1,5.4367553E-2,1.0802956E-1,-1.2292693E-1,2.3223808E-2,1.16000906E-1,-8.9792415E-2,9.3981E-2],"categories":[],"categories_nodes":[],"categories_segments":[],"categories_sizes":[],"default_left":[0,0,0,0,0,0,0,0,0,0,0,0,0,0,0,0,0,0,0,0,0,0,0,0,0,0,0,0,0,0,0,0,0,0,0,0,0,0,0,0,0,0,0,0,0,0,0,0,0,0,0,0,0,0,0],"id":6,"left_children":[1,3,5,7,9,11,13,-1,15,17,19,21,23,25,27,29,31,33,35,-1,37,39,41,43,45,47,49,51,53,-1,-1,-1,-1,-1,-1,-1,-1,-1,-1,-1,-1,-1,-1,-1,-1,-1,-1,-1,-1,-1,-1,-1,-1,-1,-1],"loss_changes":[1.1399481E2,8.004982E0,3.7491093E1,3.2147675E0,1.122703E1,1.3910507E1,3.693492E1,0E0,1.9569702E0,6.4235525E0,3.5125828E0,1.0433578E0,9.243985E0,2.7861439E1,9.847046E0,2.3693333E0,1.8837357E0,7.1961594E0,1.1994925E0,0E0,4.3948026E0,5.063515E-1,2.5058594E0,6.236479E0,3.5598373E0,3.2959442E1,9.580577E0,6.298601E0,5.8319607E0,0E0,0E0,0E0,0E0,0E0,0E0,0E0,0E0,0E0,0E0,0E0,0E0,0E0,0E0,0E0,0E0,0E0,0E0,0E0,0E0,0E0,0E0,0E0,0E0,0E0,0E0],"parents":[2147483647,0,0,1,1,2,2,3,3,4,4,5,5,6,6,8,8,9,9,10,10,11,11,12,12,13,13,14,14,15,15,16,16,17,17,18,18,20,20,21,21,22,22,23,23,24,24,25,25,26,26,27,27,28,28],"right_children":[2,4,6,8,10,12,14,-1,16,18,20,22,24,26,28,30,32,34,36,-1,38,40,42,44,46,48,50,52,54,-1,-1,-1,-1,-1,-1,-1,-1,-1,-1,-1,-1,-1,-1,-1,-1,-1,-1,-1,-1,-1,-1,-1,-1,-1,-1],"split_conditions":[-9.037081E-1,1.1445583E0,1.7417941E-2,-1.6138015E0,4.10942E-5,1.2841511E0,1.1445583E0,9.756737E-3,-1.0354061E0,1.7130615E0,1.9348545E0,3.0885977E-1,3.9538774E-1,1.9348545E0,1.2094004E0,-9.9781704E-1,-1.7561154E0,1.9348545E0,2.6108754E-1,-1.398227E-1,1.7130615E0,-4.5746785E-2,1.3107941E0,-1.2326243E0,-9.0890694E-1,1.7130615E0,1.4902581E0,-6.6413546E-1,1.9348545E0,2.3377853E-2,-9.900415E-2,-1.6834008E-2,-1.5106572E-1,-9.637638E-2,4.9439084E-2,1.1862868E-1,2.3121673E-3,-9.134571E-2,9.290626E-2,1.1937242E-1,2.3426455E-2,9.6280105E-2,1.8883634E-2,-5.438147E-2,9.928255E-2,2.3496788E-2,-1.375526E-1,-1.2479494E-1,5.4367553E-2,1.0802956E-1,-1.2292693E-1,2.3223808E-2,1.16000906E-1,-8.9792415E-2,9.3981E-2],"split_indices":[22,25,24,20,24,23,25,0,18,26,27,18,7,27,23,17,22,27,18,0,26,24,2,24,21,26,23,0,27,0,0,0,0,0,0,0,0,0,0,0,0,0,0,0,0,0,0,0,0,0,0,0,0,0,0],"split_type":[0,0,0,0,0,0,0,0,0,0,0,0,0,0,0,0,0,0,0,0,0,0,0,0,0,0,0,0,0,0,0,0,0,0,0,0,0,0,0,0,0,0,0,0,0,0,0,0,0,0,0,0,0,0,0],"sum_hessian":[2.7829782E2,7.607265E1,2.0222519E2,4.3127617E1,3.2945026E1,9.33775E1,1.0884768E2,1.4437917E0,4.1683826E1,1.642751E1,1.6517519E1,7.7261215E1,1.6116293E1,6.5243774E1,4.3603905E1,7.068088E0,3.4615738E1,1.2257975E1,4.1695333E0,1.311706E1,3.4004588E0,4.3328213E1,3.3933E1,1.0723951E1,5.392341E0,5.2086517E1,1.3157257E1,3.7228725E1,6.3751802E0,1.6619573E0,5.406131E0,1.3544227E0,3.3261314E1,7.397378E0,4.860597E0,2.9766407E0,1.1928926E0,2.1989138E0,1.2015451E0,4.221312E1,1.1150935E0,2.8402098E1,5.5309E0,3.0425892E0,7.681362E0,1.554083E0,3.838258E0,3.891091E1,1.3175607E1,1.1921593E1,1.2356639E0,1.07823925E1,2.6446331E1,4.843822E0,1.5313579E0],"tree_param":{"num_deleted":"0","num_feature":"33","num_nodes":"55","size_leaf_vector":"1"}},{"base_weights":[1.7583489E-3,-9.177538E-1,3.610535E-1,-1.1084983E0,-3.3692503E-1,-2.7933305E-3,9.036566E-1,-1.2767404E0,-5.380694E-1,6.4876884E-1,-6.1082345E-1,5.816037E-1,-4.7319344E-1,6.548989E-1,1.0630689E0,-1.3339887E0,-4.4364855E-1,-1.1302581E0,2.2375594E-1,-2.7985046E-2,1.0022805E-1,3.5768995E-1,-8.221986E-1,8.3168393E-1,-4.752921E-1,-7.6185113E-1,8.065471E-1,-3.3528852E-1,7.534429E-1,1.1162277E0,3.0828533E-1,-1.8819224E-2,-1.3619891E-1,6.3481934E-2,-1.0783475E-1,-1.3117068E-1,-1.21457195E-2,6.93426E-2,-7.430451E-2,-5.3173374E-2,1.0235997E-1,-1.0335387E-1,4.6350356E-2,1.9785682E-2,1.0608777E-1,-8.539569E-2,8.265336E-2,-1.1807835E-1,4.3851122E-2,-2.2636836E-2,1.1595564E-1,7.5127006E-2,-1.2222152E-1,1.0811817E-1,4.4324934E-2,4.2883527E-2,1.15593426E-1,9.393274E-2,-8.001765E-2],"categories":[],"categories_nodes":[],"categories_segments":[],"categories_sizes":[],"default_left":[0,0,0,0,0,0,0,0,0,0,0,0,0,0,0,0,0,0,0,0,0,0,0,0,0,0,0,0,0,0,0,0,0,0,0,0,0,0,0,0,0,0,0,0,0,0,0,0,0,0,0,0,0,0,0,0,0,0,0],"id":7,"left_children":[1,3,5,7,9,11,13,15,17,19,21,23,25,27,29,31,33,35,37,-1,-1,39,41,43,45,47,49,51,53,55,57,-1,-1,-1,-1,-1,-1,-1,-1,-1,-1,-1,-1,-1,-1,-1,-1,-1,-1,-1,-1,-1,-1,-1,-1,-1,-1,-1,-1],"loss_changes":[8.987037E1,8.094055E0,3.861727E1,4.7927094E0,5.8852525E0,3.27352E1,2.4172516E0,1.4763641E0,6.8997035E0,1.8909929E0,3.6566353E0,1.4432062E1,2.4984837E1,3.4988337E0,1.5113983E0,1.0294952E0,3.6187434E0,1.3882914E0,3.8202167E0,0E0,0E0,2.6997974E0,4.2249107E0,6.081623E0,6.0287905E0,2.784581E1,4.8668633E0,4.487009E0,2.6280727E0,6.730499E-1,3.846355E0,0E0,0E0,0E0,0E0,0E0,0E0,0E0,0E0,0E0,0E0,0E0,0E0,0E0,0E0,0E0,0E0,0E0,0E0,0E0,0E0,0E0,0E0,0E0,0E0,0E0,0E0,0E0,0E0],"parents":[2147483647,0,0,1,1,2,2,3,3,4,4,5,5,6,6,7,7,8,8,9,9,10,10,11,11,12,12,13,13,14,14,15,15,16,16,17,17,18,18,21,21,22,22,23,23,24,24,25,25,26,26,27,27,28,28,29,29,30,30],"right_children":[2,4,6,8,10,12,14,16,18,20,22,24,26,28,30,32,34,36,38,-1,-1,40,42,44,46,48,50,52,54,56,58,-1,-1,-1,-1,-1,-1,-1,-1,-1,-1,-1,-1,-1,-1,-1,-1,-1,-1,-1,-1,-1,-1,-1,-1,-1,-1,-1,-1],"split_conditions":[-8.6365116E-1,1.7130615E0,1.1445583E0,1.9348545E0,-1.0227193E0,1.7417941E-2,-4.9128884E-1,1.4643607E0,1.1445583E0,-7.505588E-1,-1.2807997E0,1.2841511E0,1.9348545E0,-1.38688E0,1.5146799E0,-1.5824442E0,-1.1761847E0,2.4954896E0,7.032125E-1,-2.7985046E-2,1.0022805E-1,5.859001E-1,2.4954896E0,-8.3698213E-1,1.9348545E0,1.7130615E0,-8.3698213E-1,-2.2916324E-1,-1.1247003E-2,-1.5324149E0,6.785023E-2,-1.8819224E-2,-1.3619891E-1,6.3481934E-2,-1.0783475E-1,-1.3117068E-1,-1.21457195E-2,6.93426E-2,-7.430451E-2,-5.3173374E-2,1.0235997E-1,-1.0335387E-1,4.6350356E-2,1.9785682E-2,1.0608777E-1,-8.539569E-2,8.265336E-2,-1.1807835E-1,4.3851122E-2,-2.2636836E-2,1.1595564E-1,7.5127006E-2,-1.2222152E-1,1.0811817E-1,4.4324934E-2,4.2883527E-2,1.15593426E-1,9.393274E-2,-8.001765E-2],"split_indices":[22,26,25,27,21,24,0,7,25,0,8,23,27,16,23,9,20,28,17,0,0,17,28,0,27,26,0,23,24,18,7,0,0,0,0,0,0,0,0,0,0,0,0,0,0,0,0,0,0,0,0,0,0,0,0,0,0,0,0],"split_type":[0,0,0,0,0,0,0,0,0,0,0,0,0,0,0,0,0,0,0,0,0,0,0,0,0,0,0,0,0,0,0,0,0,0,0,0,0,0,0,0,0,0,0,0,0,0,0,0,0,0,0,0,0,0,0,0,0,0,0],"sum_hessian":[2.7002133E2,7.5428795E1,1.9459253E2,5.6097775E1,1.9331024E1,1.1707908E2,7.751346E1,4.236457E1,1.3733202E1,3.90592E0,1.5425104E1,5.2107468E1,6.497161E1,3.2268196E1,4.5245262E1,3.9077972E1,3.2865996E0,7.4547744E0,6.2784276E0,1.1344E0,2.7715201E0,2.639376E0,1.27857275E1,4.2309402E1,9.798065E0,5.334404E1,1.1627573E1,2.7032313E0,2.9564962E1,4.1820976E1,3.4242873E0,1.116369E0,3.79616E1,1.2175585E0,2.0690413E0,6.0638356E0,1.3909388E0,4.415937E0,1.8624908E0,1.2163066E0,1.4230694E0,1.1149186E1,1.6365422E0,1.1731004E1,3.05784E1,7.856778E0,1.9412867E0,3.955534E1,1.3788698E1,3.0530386E0,8.574534E0,1.2836298E0,1.4196014E0,1.3167341E1,1.6397621E1,2.9282215E0,3.8892754E1,2.2792857E0,1.1450016E0],"tree_param":{"num_deleted":"0","num_feature":"33","num_nodes":"59","size_leaf_vector":"1"}},{"base_weights":[-1.07585145E-2,-8.857836E-1,3.0552387E-1,-1.0437584E0,-1.3739416E-1,-2.2879276E-2,8.206887E-1,6.755636E-2,-1.092247E0,4.1556752E-1,-9.8727834E-1,4.9423292E-1,-4.4880244E-1,9.1602993E-1,2.0138489E-1,-1.3337504E0,-7.666134E-1,1.2901215E-1,-2.7725655E-1,-1.1890526E-1,-1.4625236E-2,7.86917E-1,-5.749636E-1,-6.732511E-1,9.12492E-1,5.7064867E-1,1.0819194E0,-1.635346E-1,1.01967074E-1,-7.298626E-3,-1.3814835E-1,-1.04216054E-1,1.4053536E-2,-8.9907415E-2,7.8059025E-2,1.7831726E-2,9.8433815E-2,-8.9208454E-2,9.496308E-2,-1.0026405E-1,4.06523E-2,1.2904531E-1,-2.8800422E-2,8.999955E-2,5.469758E-3,1.1199907E-1,5.2413102E-2,4.9117584E-2,-7.729409E-2],"categories":[],"categories_nodes":[],"categories_segments":[],"categories_sizes":[],"default_left":[0,0,0,0,0,0,0,0,0,0,0,0,0,0,0,0,0,0,0,0,0,0,0,0,0,0,0,0,0,0,0,0,0,0,0,0,0,0,0,0,0,0,0,0,0,0,0,0,0],"id":8,"left_children":[1,3,5,7,9,11,13,-1,15,17,19,21,23,25,27,29,31,-1,33,-1,-1,35,37,39,41,43,45,47,-1,-1,-1,-1,-1,-1,-1,-1,-1,-1,-1,-1,-1,-1,-1,-1,-1,-1,-1,-1,-1],"loss_changes":[7.2443436E1,8.072407E0,3.2550785E1,5.5088577E0,6.643604E0,2.6300318E1,4.2371902E0,0E0,3.3846664E0,5.6529427E0,7.635765E-1,1.733641E1,2.0612217E1,3.0846596E0,3.5327864E0,1.7542496E0,6.6993484E0,0E0,4.4508033E0,0E0,0E0,4.9645424E0,6.7325635E0,2.0596E1,4.7677593E0,3.8728638E0,3.161888E-1,3.8338995E0,0E0,0E0,0E0,0E0,0E0,0E0,0E0,0E0,0E0,0E0,0E0,0E0,0E0,0E0,0E0,0E0,0E0,0E0,0E0,0E0,0E0],"parents":[2147483647,0,0,1,1,2,2,3,3,4,4,5,5,6,6,8,8,9,9,10,10,11,11,12,12,13,13,14,14,15,15,16,16,18,18,21,21,22,22,23,23,24,24,25,25,26,26,27,27],"right_children":[2,4,6,8,10,12,14,-1,16,18,20,22,24,26,28,30,32,-1,34,-1,-1,36,38,40,42,44,46,48,-1,-1,-1,-1,-1,-1,-1,-1,-1,-1,-1,-1,-1,-1,-1,-1,-1,-1,-1,-1,-1],"split_conditions":[-9.037081E-1,2.4954896E0,1.1445583E0,-1.6307786E0,3.7978595E-1,1.7417941E-2,1.2841511E0,6.755636E-2,1.1445583E0,-1.1247003E-2,1.2203906E0,1.2841511E0,2.4954896E0,-6.6413546E-1,1.7130615E0,-1.6138015E0,1.7130615E0,1.2901215E-1,1.7130615E0,-1.1890526E-1,-1.4625236E-2,-8.3698213E-1,1.7130615E0,1.7130615E0,9.9649346E-1,-1.0962521E0,1.3575224E0,-2.742448E-2,1.01967074E-1,-7.298626E-3,-1.3814835E-1,-1.04216054E-1,1.4053536E-2,-8.9907415E-2,7.8059025E-2,1.7831726E-2,9.8433815E-2,-8.9208454E-2,9.496308E-2,-1.0026405E-1,4.06523E-2,1.2904531E-1,-2.8800422E-2,8.999955E-2,5.469758E-3,1.1199907E-1,5.2413102E-2,4.9117584E-2,-7.729409E-2],"split_indices":[22,28,25,9,23,24,23,0,25,24,7,23,28,0,26,20,26,0,26,0,0,0,26,26,17,0,21,24,0,0,0,0,0,0,0,0,0,0,0,0,0,0,0,0,0,0,0,0,0],"split_type":[0,0,0,0,0,0,0,0,0,0,0,0,0,0,0,0,0,0,0,0,0,0,0,0,0,0,0,0,0,0,0,0,0,0,0,0,0,0,0,0,0,0,0,0,0,0,0,0,0],"sum_hessian":[2.597823E2,6.849202E1,1.9129027E2,5.6228317E1,1.2263705E1,1.1740406E2,7.38862E1,1.1875447E0,5.504077E1,7.7393007E0,4.524405E0,5.2953262E1,6.44508E1,6.36138E1,1.0272403E1,2.982526E1,2.5215513E1,3.0399022E0,4.6993985E0,3.315223E0,1.209182E0,4.178026E1,1.1173003E1,5.576222E1,8.688578E0,2.2081062E1,4.1532738E1,7.6576004E0,2.6148026E0,1.1802675E0,2.8644993E1,1.9226591E1,5.988922E0,3.0541914E0,1.6452073E0,1.069953E1,3.108073E1,9.592584E0,1.5804193E0,4.278264E1,1.297958E1,6.5511103E0,2.1374676E0,1.302346E1,9.057601E0,3.7935574E1,3.5971649E0,3.7851095E0,3.8724906E0],"tree_param":{"num_deleted":"0","num_feature":"33","num_nodes":"49","size_leaf_vector":"1"}},{"base_weights":[-4.3040654E-3,-8.280876E-1,3.0888596E-1,-9.6432656E-1,-1.0969956E-1,4.8684862E-1,-6.296007E-1,-6.984101E-1,-1.2704476E0,4.9314508E-1,-6.211689E-1,9.0127164E-1,1.6670392E-1,-1.0693461E0,2.6478615E-1,-9.6040744E-1,-9.883011E-3,-4.682535E-3,-1.3221076E0,9.179929E-1,-3.885682E-2,-1.006119E0,4.1509736E-2,5.636462E-1,1.0511869E0,-2.447034E-2,1.374064E-1,-1.2190859E0,9.912362E-3,-1.2056919E-1,1.0055776E-1,-1.0822173E-1,1.6765125E-2,-5.6696296E-2,6.735288E-2,-2.9781377E-2,-1.3562445E-1,1.4365596E-2,1.14799894E-1,-1.1155567E-1,-2.814634E-2,-5.0841816E-2,7.202538E-2,2.7104119E-2,1.08510174E-1,-4.8152793E-2,7.0429765E-2,-1.3338774E-1,7.387767E-3,4.3755706E-2,-7.221728E-2],"categories":[],"categories_nodes":[],"categories_segments":[],"categories_sizes":[],"default_left":[0,0,0,0,0,0,0,0,0,0,0,0,0,0,0,0,0,0,0,0,0,0,0,0,0,0,0,0,0,0,0,0,0,0,0,0,0,0,0,0,0,0,0,0,0,0,0,0,0,0,0],"id":9,"left_children":[1,3,5,7,9,11,13,15,17,19,21,23,25,27,29,31,33,-1,35,37,-1,39,-1,41,43,45,-1,47,-1,49,-1,-1,-1,-1,-1,-1,-1,-1,-1,-1,-1,-1,-1,-1,-1,-1,-1,-1,-1,-1,-1],"loss_changes":[6.4748604E1,6.6600075E0,3.0677094E1,3.8324547E0,4.0521193E0,2.0204926E1,1.1854857E1,5.988291E0,1.5646515E0,2.654292E0,3.2159336E0,2.7804031E0,2.0295313E1,3.6066246E0,3.1184638E0,3.4893703E0,4.2555833E0,0E0,4.5809555E-1,6.252396E-1,0E0,1.1480188E-1,0E0,4.168445E0,8.962898E-1,2.5908955E1,0E0,2.730751E0,0E0,2.9348385E0,0E0,0E0,0E0,0E0,0E0,0E0,0E0,0E0,0E0,0E0,0E0,0E0,0E0,0E0,0E0,0E0,0E0,0E0,0E0,0E0,0E0],"parents":[2147483647,0,0,1,1,2,2,3,3,4,4,5,5,6,6,7,7,8,8,9,9,10,10,11,11,12,12,13,13,14,14,15,15,16,16,18,18,19,19,21,21,23,23,24,24,25,25,27,27,29,29],"right_children":[2,4,6,8,10,12,14,16,18,20,22,24,26,28,30,32,34,-1,36,38,-1,40,-1,42,44,46,-1,48,-1,50,-1,-1,-1,-1,-1,-1,-1,-1,-1,-1,-1,-1,-1,-1,-1,-1,-1,-1,-1,-1,-1],"split_conditions":[-9.037081E-1,2.4954896E0,1.2841511E0,9.7936735E-2,4.10942E-5,4.10942E-5,1.1445583E0,1.7130615E0,-1.4735874E0,7.1472543E-1,1.7130615E0,-7.505588E-1,2.4954896E0,2.4954896E0,1.7130615E0,1.5417826E0,1.1445583E0,-4.682535E-3,-1.6023922E0,3.1107616E-1,-3.885682E-2,9.895441E-1,4.1509736E-2,-1.2966659E0,-7.906792E-1,1.1445583E0,1.374064E-1,1.5959209E0,9.912362E-3,-2.742448E-2,1.0055776E-1,-1.0822173E-1,1.6765125E-2,-5.6696296E-2,6.735288E-2,-2.9781377E-2,-1.3562445E-1,1.4365596E-2,1.14799894E-1,-1.1155567E-1,-2.814634E-2,-5.0841816E-2,7.202538E-2,2.7104119E-2,1.08510174E-1,-4.8152793E-2,7.0429765E-2,-1.3338774E-1,7.387767E-3,4.3755706E-2,-7.221728E-2],"split_indices":[22,28,23,24,24,24,25,26,20,23,26,0,28,28,26,21,25,0,8,2,0,18,0,21,22,25,0,19,0,24,0,0,0,0,0,0,0,0,0,0,0,0,0,0,0,0,0,0,0,0,0],"split_type":[0,0,0,0,0,0,0,0,0,0,0,0,0,0,0,0,0,0,0,0,0,0,0,0,0,0,0,0,0,0,0,0,0,0,0,0,0,0,0,0,0,0,0,0,0,0,0,0,0,0,0],"sum_hessian":[2.4897142E2,6.812865E1,1.8084277E2,5.6980255E1,1.1148389E1,1.5242087E2,2.8421907E1,3.2248554E1,2.4731699E1,5.133547E0,6.0148416E0,6.563806E1,8.67828E1,1.8922579E1,9.49933E0,2.3073708E1,9.174848E0,1.079073E0,2.3652626E1,3.4365304E0,1.6970165E0,4.406876E0,1.6079655E0,2.1646832E1,4.3991234E1,7.576573E1,1.101707E1,1.6734701E1,2.1878767E0,6.799508E0,2.6998215E0,2.0861664E1,2.2120447E0,5.1484814E0,4.026366E0,1.076479E0,2.2576147E1,1.1590512E0,2.2774792E0,3.3600154E0,1.0468608E0,2.4727902E0,1.917404E1,2.2073414E0,4.178389E1,4.677153E1,2.89942E1,1.5341053E1,1.3936485E0,3.6686604E0,3.1308475E0],"tree_param":{"num_deleted":"0","num_feature":"33","num_nodes":"51","size_leaf_vector":"1"}},{"base_weights":[8.889624E-3,-7.8046995E-1,3.1411836E-1,-9.4867057E-1,-2.142898E-1,1.3021959E-2,7.9714286E-1,-1.1374279E0,-4.5024136E-1,-7.764141E-1,4.496127E-1,-2.3937586E-1,9.346651E-1,9.0625185E-1,1.8886563E-1,1.9048998E-3,-1.172748E0,-7.9782206E-1,3.3866653E-1,-4.8919372E-2,-1.1752608E-1,-6.2268276E-2,1.1607947E-1,-5.75966E-1,7.921041E-1,1.1408169E0,-5.9635663E-1,9.34247E-1,-2.3646941E-2,5.509461E-1,-5.7783407E-1,-1.1985617E-1,-2.3335319E-2,-9.8119214E-2,2.3283437E-2,-1.548251E-2,9.257749E-2,6.1838288E-2,-8.5262045E-2,5.394038E-2,-7.573018E-2,-8.9635104E-2,9.224639E-2,1.05575524E-1,-6.721249E-2,1.2221479E-1,-1.3345267E-2,1.6603578E-2,-1.0786088E-1,9.810599E-2,4.1203834E-2,-6.4655202E-3,9.27422E-2,-1.393132E-1,3.4565132E-2],"categories":[],"categories_nodes":[],"categories_segments":[],"categories_sizes":[],"default_left":[0,0,0,0,0,0,0,0,0,0,0,0,0,0,0,0,0,0,0,0,0,0,0,0,0,0,0,0,0,0,0,0,0,0,0,0,0,0,0,0,0,0,0,0,0,0,0,0,0,0,0,0,0,0,0],"id":10,"left_children":[1,3,5,7,9,11,13,15,17,19,21,23,25,27,29,-1,31,33,35,37,-1,39,-1,41,43,45,47,49,-1,51,53,-1,-1,-1,-1,-1,-1,-1,-1,-1,-1,-1,-1,-1,-1,-1,-1,-1,-1,-1,-1,-1,-1,-1,-1],"loss_changes":[5.8061527E1,6.1965027E0,2.5261356E1,4.3348656E0,6.575339E0,2.5359964E1,4.256115E0,1.5219193E0,4.604455E0,2.6702971E0,3.0874798E0,3.0183174E1,8.076691E0,2.0219536E0,3.4855657E0,0E0,5.845604E-1,2.358428E0,1.7473518E0,2.8722203E0,0E0,2.8194036E0,0E0,3.2096786E1,9.004548E0,2.3391209E0,1.4429955E0,9.440689E-1,0E0,1.9745724E0,3.6044536E0,0E0,0E0,0E0,0E0,0E0,0E0,0E0,0E0,0E0,0E0,0E0,0E0,0E0,0E0,0E0,0E0,0E0,0E0,0E0,0E0,0E0,0E0,0E0,0E0],"parents":[2147483647,0,0,1,1,2,2,3,3,4,4,5,5,6,6,7,7,8,8,9,9,10,10,11,11,12,12,13,13,14,14,16,16,17,17,18,18,19,19,21,21,23,23,24,24,25,25,26,26,27,27,29,29,30,30],"right_children":[2,4,6,8,10,12,14,16,18,20,22,24,26,28,30,-1,32,34,36,38,-1,40,-1,42,44,46,48,50,-1,52,54,-1,-1,-1,-1,-1,-1,-1,-1,-1,-1,-1,-1,-1,-1,-1,-1,-1,-1,-1,-1,-1,-1,-1,-1],"split_conditions":[-8.6365116E-1,1.9348545E0,1.1445583E0,1.7130615E0,1.1445583E0,1.9348545E0,1.2094004E0,-1.6263547E0,6.4960825E-1,-3.9613825E-1,-1.2207254E0,1.7130615E0,1.5146799E0,1.6393234E0,8.522826E-1,1.9048998E-3,1.5851142E0,8.4520996E-1,1.1445583E0,3.5723636E-1,-1.1752608E-1,2.9261917E-1,1.1607947E-1,2.4954896E0,1.3577089E0,1.4851018E0,-4.6883947E-1,1.382674E0,-2.3646941E-2,-4.908599E-1,-7.505588E-1,-1.1985617E-1,-2.3335319E-2,-9.8119214E-2,2.3283437E-2,-1.548251E-2,9.257749E-2,6.1838288E-2,-8.5262045E-2,5.394038E-2,-7.573018E-2,-8.9635104E-2,9.224639E-2,1.05575524E-1,-6.721249E-2,1.2221479E-1,-1.3345267E-2,1.6603578E-2,-1.0786088E-1,9.810599E-2,4.1203834E-2,-6.4655202E-3,9.27422E-2,-1.393132E-1,3.4565132E-2],"split_indices":[22,27,25,26,25,27,23,8,20,24,22,26,23,20,20,0,18,4,25,23,0,17,0,28,23,9,24,21,0,4,0,0,0,0,0,0,0,0,0,0,0,0,0,0,0,0,0,0,0,0,0,0,0,0,0],"split_type":[0,0,0,0,0,0,0,0,0,0,0,0,0,0,0,0,0,0,0,0,0,0,0,0,0,0,0,0,0,0,0,0,0,0,0,0,0,0,0,0,0,0,0,0,0,0,0,0,0,0,0,0,0,0,0],"sum_hessian":[2.3896645E2,6.6202225E1,1.7276422E2,5.0518612E1,1.5683615E1,1.070567E2,6.570751E1,3.5712215E1,1.4806397E1,8.401024E0,7.282592E0,8.462255E1,2.243415E1,5.5298542E1,1.040897E1,1.0720196E0,3.4640194E1,1.0270204E1,4.536194E0,3.3724113E0,5.028612E0,4.7652183E0,2.5173736E0,6.413559E1,2.0486963E1,1.999649E1,2.4376593E0,5.415427E1,1.1442727E0,7.2612076E0,3.147762E0,3.3445263E1,1.1949302E0,8.7597065E0,1.5104969E0,2.8646312E0,1.6715626E0,1.9685398E0,1.4038714E0,2.6741738E0,2.0910442E0,5.3169106E1,1.0966484E1,1.7597332E1,2.889631E0,1.8835228E1,1.1612636E0,1.1985614E0,1.239098E0,4.8892662E1,5.26161E0,3.0698113E0,4.191396E0,1.4017074E0,1.7460546E0],"tree_param":{"num_deleted":"0","num_feature":"33","num_nodes":"55","size_leaf_vector":"1"}},{"base_weights":[4.899501E-2,-7.556228E-1,3.3671394E-1,-1.0206763E0,-3.661306E-1,5.4696107E-1,-5.473802E-1,6.92673E-2,-1.0988581E0,1.922164E-1,-9.7685E-1,9.342211E-1,2.599301E-1,-5.5470575E-2,-1.1007426E0,-1.0023315E-3,-1.134372E0,5.892743E-1,-7.0881945E-1,-1.1329999E0,7.3759267E-3,1.0267509E0,5.4651713E-1,-4.477538E-2,7.922981E-1,-3.855893E-1,1.0855295E-1,-1.3092202E0,-4.8431654E-2,-1.1768823E-1,-3.4854513E-2,-4.4903696E-2,7.974398E-2,-1.0409915E-1,1.6368283E-2,-1.2397589E-1,-2.8180718E-2,7.114682E-4,1.0645082E-1,-6.894728E-2,7.215798E-2,-3.4320142E-2,1.0310572E-1,3.4050297E-2,1.0116201E-1,-6.0400672E-2,7.386311E-2,-1.379938E-1,-2.8608723E-2,5.566247E-2,-6.550718E-2],"categories":[],"categories_nodes":[],"categories_segments":[],"categories_sizes":[],"default_left":[0,0,0,0,0,0,0,0,0,0,0,0,0,0,0,0,0,0,0,0,0,0,0,0,0,0,0,0,0,0,0,0,0,0,0,0,0,0,0,0,0,0,0,0,0,0,0,0,0,0,0],"id":11,"left_children":[1,3,5,7,9,11,13,-1,15,17,19,21,23,25,27,-1,29,31,33,35,-1,37,39,41,43,45,-1,47,49,-1,-1,-1,-1,-1,-1,-1,-1,-1,-1,-1,-1,-1,-1,-1,-1,-1,-1,-1,-1,-1,-1],"loss_changes":[5.44724E1,6.0265083E0,3.2494133E1,5.62788E0,9.28004E0,1.5366455E1,9.132913E0,0E0,1.3471718E0,5.7000217E0,2.1997175E0,1.5694771E0,1.3342974E1,7.550327E0,3.4120789E0,0E0,7.260666E-1,2.6912477E0,1.6108601E0,6.7668724E-1,0E0,1.7945518E0,3.436184E0,1.7408487E1,2.6198387E0,4.2332582E0,0E0,5.5913544E-1,1.7072954E0,0E0,0E0,0E0,0E0,0E0,0E0,0E0,0E0,0E0,0E0,0E0,0E0,0E0,0E0,0E0,0E0,0E0,0E0,0E0,0E0,0E0,0E0],"parents":[2147483647,0,0,1,1,2,2,3,3,4,4,5,5,6,6,8,8,9,9,10,10,11,11,12,12,13,13,14,14,16,16,17,17,18,18,19,19,21,21,22,22,23,23,24,24,25,25,27,27,28,28],"right_children":[2,4,6,8,10,12,14,-1,16,18,20,22,24,26,28,-1,30,32,34,36,-1,38,40,42,44,46,-1,48,50,-1,-1,-1,-1,-1,-1,-1,-1,-1,-1,-1,-1,-1,-1,-1,-1,-1,-1,-1,-1,-1,-1],"split_conditions":[-9.037081E-1,1.1445583E0,1.2094004E0,-1.5714911E0,4.10942E-5,4.10942E-5,4.10942E-5,6.92673E-2,-1.6138015E0,8.986613E-1,1.3863198E0,9.4188774E-1,1.1445583E0,1.7130615E0,1.9348545E0,-1.0023315E-3,1.5830554E0,-1.260858E0,-1.1720446E0,2.4954896E0,7.3759267E-3,-1.6932703E0,1.0325416E0,1.9348545E0,-6.6413546E-1,1.9348545E0,1.0855295E-1,1.5501283E0,2.4566439E-1,-1.1768823E-1,-3.4854513E-2,-4.4903696E-2,7.974398E-2,-1.0409915E-1,1.6368283E-2,-1.2397589E-1,-2.8180718E-2,7.114682E-4,1.0645082E-1,-6.894728E-2,7.215798E-2,-3.4320142E-2,1.0310572E-1,3.4050297E-2,1.0116201E-1,-6.0400672E-2,7.386311E-2,-1.379938E-1,-2.8608723E-2,5.566247E-2,-6.550718E-2],"split_indices":[22,25,23,18,24,24,24,0,20,23,6,18,25,26,27,0,17,4,22,28,0,18,18,27,0,27,0,24,22,0,0,0,0,0,0,0,0,0,0,0,0,0,0,0,0,0,0,0,0,0,0],"split_type":[0,0,0,0,0,0,0,0,0,0,0,0,0,0,0,0,0,0,0,0,0,0,0,0,0,0,0,0,0,0,0,0,0,0,0,0,0,0,0,0,0,0,0,0,0,0,0,0,0,0,0],"sum_hessian":[2.3319908E2,6.099574E1,1.7220334E2,3.5331657E1,2.566408E1,1.3942734E2,3.2775997E1,1.1988649E0,3.4132793E1,1.3764876E1,1.1899203E1,5.8391376E1,8.1035965E1,1.793393E1,1.4842066E1,1.118628E0,3.3014164E1,9.794677E0,3.9702E0,1.0291218E1,1.6079853E0,4.5810024E1,1.2581352E1,5.212033E1,2.8915636E1,1.4423055E1,3.5108757E0,1.2184088E1,2.6579776E0,3.0847784E1,2.1663814E0,1.4424998E0,8.352177E0,2.7356102E0,1.2345898E0,8.738691E0,1.5525267E0,1.6782154E0,4.413181E1,1.1963516E0,1.1385001E1,4.1335293E1,1.078504E1,1.0283838E1,1.8631798E1,1.2464199E1,1.9588548E0,1.107019E1,1.113897E0,1.3720031E0,1.2859746E0],"tree_param":{"num_deleted":"0","num_feature":"33","num_nodes":"51","size_leaf_vector":"1"}},{"base_weights":[6.2118582E-3,-7.283897E-1,2.6171142E-1,-9.1543084E-1,7.812264E-2,-2.3735559E-2,7.383599E-1,-1.0966032E0,-4.1536593E-1,-3.6609054E-1,8.443352E-1,-2.161123E-1,1.008347E0,8.008743E-1,-1.8202011E-1,-1.1649238E0,-1.96552E-1,4.5211336E-1,-7.67146E-1,7.198965E-2,-6.451343E-1,2.719096E-2,1.0779183E-1,-4.4507897E-1,6.870217E-1,-3.0030644E-2,1.181463E0,4.9265295E-1,9.720594E-1,-7.836564E-2,5.750463E-2,-1.22605585E-1,-5.1793467E-2,-7.933746E-2,5.067544E-2,-4.815557E-2,9.2142895E-2,2.0816337E-2,-1.01062976E-1,2.9795652E-2,-8.803579E-2,-8.102023E-2,5.479903E-2,8.795852E-2,-6.551914E-2,1.23019494E-1,3.221785E-2,8.7862864E-2,2.2501738E-3,4.177112E-2,1.0361065E-1],"categories":[],"categories_nodes":[],"categories_segments":[],"categories_sizes":[],"default_left":[0,0,0,0,0,0,0,0,0,0,0,0,0,0,0,0,0,0,0,0,0,0,0,0,0,0,0,0,0,0,0,0,0,0,0,0,0,0,0,0,0,0,0,0,0,0,0,0,0,0,0],"id":12,"left_children":[1,3,5,7,9,11,13,15,17,19,21,23,25,27,29,31,33,35,37,-1,39,-1,-1,41,43,-1,45,47,49,-1,-1,-1,-1,-1,-1,-1,-1,-1,-1,-1,-1,-1,-1,-1,-1,-1,-1,-1,-1,-1,-1],"loss_changes":[4.2523026E1,8.891289E0,2.288572E1,3.851429E0,4.3689456E0,2.1282284E1,3.769764E0,1.879364E0,4.69615E0,2.9639227E0,3.3264875E-1,1.896773E1,4.170952E0,2.6427994E0,2.646421E0,6.17363E-1,1.9223524E0,2.5212905E0,2.7064857E0,0E0,1.8350003E0,0E0,0E0,2.6768734E1,5.395446E0,0E0,2.351036E-1,4.1818976E0,8.8124084E-1,0E0,0E0,0E0,0E0,0E0,0E0,0E0,0E0,0E0,0E0,0E0,0E0,0E0,0E0,0E0,0E0,0E0,0E0,0E0,0E0,0E0,0E0],"parents":[2147483647,0,0,1,1,2,2,3,3,4,4,5,5,6,6,7,7,8,8,9,9,10,10,11,11,12,12,13,13,14,14,15,15,16,16,17,17,18,18,20,20,23,23,24,24,26,26,27,27,28,28],"right_children":[2,4,6,8,10,12,14,16,18,20,22,24,26,28,30,32,34,36,38,-1,40,-1,-1,42,44,-1,46,48,50,-1,-1,-1,-1,-1,-1,-1,-1,-1,-1,-1,-1,-1,-1,-1,-1,-1,-1,-1,-1,-1,-1],"split_conditions":[-9.275034E-1,2.4954896E0,1.1445583E0,1.7130615E0,1.9348545E0,2.4954896E0,1.590103E0,1.5417826E0,-9.376612E-1,-1.1551965E0,7.4355793E-1,1.9348545E0,-1.2966659E0,-5.777122E-1,-1.7738932E-1,1.1975502E0,4.697945E-2,-8.1392485E-1,-1.0854745E0,7.198965E-2,-1.126729E0,2.719096E-2,1.0779183E-1,1.7130615E0,1.5146799E0,-3.0030644E-2,1.4657431E0,-1.0962521E0,-1.318592E0,-7.836564E-2,5.750463E-2,-1.22605585E-1,-5.1793467E-2,-7.933746E-2,5.067544E-2,-4.815557E-2,9.2142895E-2,2.0816337E-2,-1.01062976E-1,2.9795652E-2,-8.803579E-2,-8.102023E-2,5.479903E-2,8.795852E-2,-6.551914E-2,1.23019494E-1,3.221785E-2,8.7862864E-2,2.2501738E-3,4.177112E-2,1.0361065E-1],"split_indices":[22,28,25,26,27,28,23,21,21,4,3,27,21,0,4,6,4,19,6,0,20,0,0,26,23,0,17,0,18,0,0,0,0,0,0,0,0,0,0,0,0,0,0,0,0,0,0,0,0,0,0],"split_type":[0,0,0,0,0,0,0,0,0,0,0,0,0,0,0,0,0,0,0,0,0,0,0,0,0,0,0,0,0,0,0,0,0,0,0,0,0,0,0,0,0,0,0,0,0,0,0,0,0,0,0],"sum_hessian":[2.2454378E2,5.7466805E1,1.6707697E2,4.6538784E1,1.0928022E1,1.0509168E2,6.1985283E1,3.3286304E1,1.3252476E1,7.2481194E0,3.6799033E0,8.9246956E1,1.5844729E1,5.816446E1,3.8208249E0,3.0664366E1,2.6219406E0,3.7413068E0,9.511169E0,1.1587211E0,6.089398E0,1.6935996E0,1.9863038E0,7.160142E1,1.7645536E1,1.765312E0,1.4079417E1,2.215391E1,3.601055E1,2.109386E0,1.711439E0,2.7199362E1,3.465004E0,1.3490658E0,1.272875E0,1.2427887E0,2.498518E0,1.9290694E0,7.5821E0,1.1623697E0,4.927028E0,5.2487427E1,1.9113993E1,1.5733037E1,1.912499E0,1.291531E1,1.1641068E0,1.1688933E1,1.0464976E1,4.5086465E0,3.1501904E1],"tree_param":{"num_deleted":"0","num_feature":"33","num_nodes":"51","size_leaf_vector":"1"}},{"base_weights":[3.6230963E-2,-6.9496804E-1,2.982603E-1,-9.1047025E-1,-7.273983E-2,4.7118917E-1,-4.9335822E-1,-1.0872144E0,-4.9479625E-1,-3.8851595E-1,6.905209E-1,8.629479E-1,1.8727681E-1,-8.542063E-1,1.15627244E-1,-2.0726503E-1,-1.1487972E0,-8.8597715E-1,2.2592005E-1,1.7649533E-1,-9.1365683E-1,-2.6018385E-2,1.00710236E-1,4.71181E-1,1.0373993E0,1.7494991E-2,1.1568058E0,-1.054559E0,4.526341E-2,-1.8523614E-1,9.2668265E-2,4.535021E-2,-7.295501E-2,-2.4207463E-2,-1.22997425E-1,-4.3824118E-2,-1.1774414E-1,-4.067193E-2,7.885969E-2,-6.0275335E-2,4.7566503E-2,-1.0823373E-1,-1.3819051E-2,-1.7048335E-2,7.6356195E-2,1.07424974E-1,-1.4567775E-2,-2.6081938E-2,8.376195E-2,2.6682077E-2,1.2209045E-1,8.375782E-3,-1.2354284E-1,-6.283429E-2,7.029509E-2,3.378768E-2,-6.546412E-2],"categories":[],"categories_nodes":[],"categories_segments":[],"categories_sizes":[],"default_left":[0,0,0,0,0,0,0,0,0,0,0,0,0,0,0,0,0,0,0,0,0,0,0,0,0,0,0,0,0,0,0,0,0,0,0,0,0,0,0,0,0,0,0,0,0,0,0,0,0,0,0,0,0,0,0,0,0],"id":13,"left_children":[1,3,5,7,9,11,13,15,17,19,21,23,25,27,29,31,33,35,37,39,41,-1,-1,43,45,47,49,51,53,55,-1,-1,-1,-1,-1,-1,-1,-1,-1,-1,-1,-1,-1,-1,-1,-1,-1,-1,-1,-1,-1,-1,-1,-1,-1,-1,-1],"loss_changes":[4.24777E1,7.7786865E0,2.2562428E1,2.6481628E0,4.1575494E0,1.4785456E1,6.632697E0,1.3655739E0,4.365288E0,3.737903E0,1.7917147E0,3.3515167E0,1.3015907E1,3.4338274E0,3.086122E0,1.4199395E0,1.7218323E0,7.6017666E-1,2.454564E0,1.8358028E0,6.888318E-1,0E0,0E0,3.72188E0,1.8152008E0,1.5832877E1,3.4661293E-1,3.275753E0,2.38289E0,2.5650747E0,0E0,0E0,0E0,0E0,0E0,0E0,0E0,0E0,0E0,0E0,0E0,0E0,0E0,0E0,0E0,0E0,0E0,0E0,0E0,0E0,0E0,0E0,0E0,0E0,0E0,0E0,0E0],"parents":[2147483647,0,0,1,1,2,2,3,3,4,4,5,5,6,6,7,7,8,8,9,9,10,10,11,11,12,12,13,13,14,14,15,15,16,16,17,17,18,18,19,19,20,20,23,23,24,24,25,25,26,26,27,27,28,28,29,29],"right_children":[2,4,6,8,10,12,14,16,18,20,22,24,26,28,30,32,34,36,38,40,42,-1,-1,44,46,48,50,52,54,56,-1,-1,-1,-1,-1,-1,-1,-1,-1,-1,-1,-1,-1,-1,-1,-1,-1,-1,-1,-1,-1,-1,-1,-1,-1,-1,-1],"split_conditions":[-9.275034E-1,1.9348545E0,1.2094004E0,1.7130615E0,2.4954896E0,4.10942E-5,1.1445583E0,-1.4942346E0,6.4960825E-1,-1.5486443E-1,-6.982123E-1,-7.505588E-1,2.4954896E0,1.9348545E0,1.7130615E0,3.1071627E-1,-1.4248792E0,-2.6462537E-1,-9.49077E-2,-1.1164354E0,1.7130615E0,-2.6018385E-2,1.00710236E-1,-5.1025015E-1,1.5693302E0,1.7130615E0,-1.2873157E0,-1.2807997E0,1.0301454E0,-2.742448E-2,9.2668265E-2,4.535021E-2,-7.295501E-2,-2.4207463E-2,-1.22997425E-1,-4.3824118E-2,-1.1774414E-1,-4.067193E-2,7.885969E-2,-6.0275335E-2,4.7566503E-2,-1.0823373E-1,-1.3819051E-2,-1.7048335E-2,7.6356195E-2,1.07424974E-1,-1.4567775E-2,-2.6081938E-2,8.376195E-2,2.6682077E-2,1.2209045E-1,8.375782E-3,-1.2354284E-1,-6.283429E-2,7.029509E-2,3.378768E-2,-6.546412E-2],"split_indices":[22,27,23,26,28,24,25,20,20,24,20,0,28,27,26,8,16,18,16,24,26,0,0,6,9,26,21,8,1,24,0,0,0,0,0,0,0,0,0,0,0,0,0,0,0,0,0,0,0,0,0,0,0,0,0,0,0],"split_type":[0,0,0,0,0,0,0,0,0,0,0,0,0,0,0,0,0,0,0,0,0,0,0,0,0,0,0,0,0,0,0,0,0,0,0,0,0,0,0,0,0,0,0,0,0,0,0,0,0,0,0,0,0,0,0,0,0],"sum_hessian":[2.1962314E2,5.750416E1,1.6211897E2,4.2367413E1,1.5136748E1,1.3338568E2,2.8733295E1,2.859381E1,1.37736025E1,1.1054331E1,4.0824175E0,5.5190777E1,7.81949E1,1.7789587E1,1.0943709E1,2.1557782E0,2.6438032E1,8.779228E0,4.9943743E0,5.6448326E0,5.409498E0,1.0643337E0,3.0180838E0,1.8144487E1,3.7046288E1,6.7408516E1,1.0786387E1,1.4407877E1,3.3817096E0,8.545384E0,2.3983245E0,1.0098572E0,1.145921E0,2.4996593E0,2.3938372E1,4.4487767E0,4.3304515E0,2.4814992E0,2.5128753E0,1.2844546E0,4.3603783E0,4.118017E0,1.2914808E0,5.8102107E0,1.2334277E1,3.6016434E1,1.0298532E0,5.0838223E1,1.6570292E1,1.0715127E0,9.714875E0,2.049032E0,1.2358846E1,1.6926787E0,1.6890309E0,4.174005E0,4.37138E0],"tree_param":{"num_deleted":"0","num_feature":"33","num_nodes":"57","size_leaf_vector":"1"}},{"base_weights":[4.5382332E-2,-5.909334E-1,2.651917E-1,-7.7880627E-1,-4.985795E-2,6.9664514E-1,-5.357607E-2,-9.7601527E-1,-3.330857E-1,-5.793527E-1,5.785983E-1,8.1158257E-1,3.5151638E-2,-3.6029965E-1,5.045494E-1,-4.211093E-3,-1.0232841E0,2.9905967E-2,-8.137935E-1,-8.7516755E-1,1.912688E-1,-7.059608E-2,1.0065061E0,5.9613144E-1,1.036408E0,3.567498E-1,-8.495965E-2,-6.1561304E-1,6.249578E-1,6.367223E-1,-5.696698E-1,-1.0765087E-1,6.6702114E-3,4.9145214E-2,-6.862444E-2,6.0816123E-3,-1.0364095E-1,-1.0564051E-1,-1.4512132E-2,-4.3383952E-2,6.931812E-2,4.9115647E-2,-8.110812E-2,1.9785453E-2,1.1894214E-1,8.9560464E-2,1.8168386E-2,1.0862895E-1,-8.954252E-3,6.5916434E-2,-6.1460007E-2,-8.7665826E-2,6.7578584E-2,1.2204677E-1,-1.1510176E-2,-2.9240868E-3,9.410602E-2,-9.007739E-2,1.4604702E-2],"categories":[],"categories_nodes":[],"categories_segments":[],"categories_sizes":[],"default_left":[0,0,0,0,0,0,0,0,0,0,0,0,0,0,0,0,0,0,0,0,0,0,0,0,0,0,0,0,0,0,0,0,0,0,0,0,0,0,0,0,0,0,0,0,0,0,0,0,0,0,0,0,0,0,0,0,0,0,0],"id":14,"left_children":[1,3,5,7,9,11,13,15,17,19,21,23,25,27,29,-1,31,33,35,37,39,41,43,45,47,49,-1,51,53,55,57,-1,-1,-1,-1,-1,-1,-1,-1,-1,-1,-1,-1,-1,-1,-1,-1,-1,-1,-1,-1,-1,-1,-1,-1,-1,-1,-1,-1],"loss_changes":[2.9558317E1,5.479006E0,2.162026E1,3.2104702E0,5.346071E0,5.046501E0,1.5790653E1,1.1650028E0,2.4420662E0,2.1443355E0,2.122853E0,2.1346397E0,3.412046E0,1.5333036E1,5.0131607E0,0E0,1.5804939E0,3.2654881E0,1.2306037E0,6.995821E-1,1.312954E0,2.007648E0,4.32837E-1,3.7308931E0,1.5829773E0,2.9660044E0,0E0,1.6672356E1,5.749018E0,6.034336E0,1.10702E0,0E0,0E0,0E0,0E0,0E0,0E0,0E0,0E0,0E0,0E0,0E0,0E0,0E0,0E0,0E0,0E0,0E0,0E0,0E0,0E0,0E0,0E0,0E0,0E0,0E0,0E0,0E0,0E0],"parents":[2147483647,0,0,1,1,2,2,3,3,4,4,5,5,6,6,7,7,8,8,9,9,10,10,11,11,12,12,13,13,14,14,16,16,17,17,18,18,19,19,20,20,21,21,22,22,23,23,24,24,25,25,27,27,28,28,29,29,30,30],"right_children":[2,4,6,8,10,12,14,16,18,20,22,24,26,28,30,-1,32,34,36,38,40,42,44,46,48,50,-1,52,54,56,58,-1,-1,-1,-1,-1,-1,-1,-1,-1,-1,-1,-1,-1,-1,-1,-1,-1,-1,-1,-1,-1,-1,-1,-1,-1,-1,-1,-1],"split_conditions":[-9.275034E-1,1.9348545E0,4.10942E-5,1.7130615E0,1.1445583E0,1.3577089E0,1.1445583E0,-1.5388768E0,-8.588276E-2,1.7130615E0,-4.1776168E-1,5.271426E-1,6.7147154E-1,1.9348545E0,1.379411E0,-4.211093E-3,1.5830554E0,7.2943497E-1,-1.4478993E0,1.0947156E0,1.5172215E0,3.5127535E-1,-8.202417E-1,3.1107616E-1,1.6415257E0,8.550719E-1,-8.495965E-2,2.4954896E0,-2.5387343E-2,-8.3698213E-1,-2.1489955E-1,-1.0765087E-1,6.6702114E-3,4.9145214E-2,-6.862444E-2,6.0816123E-3,-1.0364095E-1,-1.0564051E-1,-1.4512132E-2,-4.3383952E-2,6.931812E-2,4.9115647E-2,-8.110812E-2,1.9785453E-2,1.1894214E-1,8.9560464E-2,1.8168386E-2,1.0862895E-1,-8.954252E-3,6.5916434E-2,-6.1460007E-2,-8.7665826E-2,6.7578584E-2,1.2204677E-1,-1.1510176E-2,-2.9240868E-3,9.410602E-2,-9.007739E-2,1.4604702E-2],"split_indices":[22,27,24,26,25,23,25,16,24,26,6,22,7,27,23,0,17,23,4,9,31,17,9,2,4,16,0,28,23,0,9,0,0,0,0,0,0,0,0,0,0,0,0,0,0,0,0,0,0,0,0,0,0,0,0,0,0,0,0],"split_type":[0,0,0,0,0,0,0,0,0,0,0,0,0,0,0,0,0,0,0,0,0,0,0,0,0,0,0,0,0,0,0,0,0,0,0,0,0,0,0,0,0,0,0,0,0,0,0,0,0,0,0,0,0,0,0,0,0,0,0],"sum_hessian":[2.0920946E2,5.3280853E1,1.559286E2,3.9222572E1,1.4058282E1,6.5750114E1,9.017848E1,2.6366829E1,1.2855744E1,7.672275E0,6.3860064E0,5.5823624E1,9.926496E0,5.8424915E1,3.1753565E1,1.3613368E0,2.5005491E1,7.859029E0,4.9967155E0,5.446058E0,2.2262173E0,2.8687468E0,3.5172596E0,3.0370739E1,2.5452885E1,7.7178884E0,2.2086067E0,4.6698845E1,1.17260685E1,2.8637278E1,3.1162882E0,2.3853096E1,1.1523947E0,4.9698243E0,2.8892047E0,1.1612456E0,3.8354697E0,4.0048065E0,1.4412515E0,1.0518342E0,1.174383E0,1.8227034E0,1.0460434E0,1.0328405E0,2.484419E0,1.6956955E1,1.3413783E1,2.4406841E1,1.0460423E0,6.1306124E0,1.587276E0,3.9113537E1,7.58531E0,6.137892E0,5.5881767E0,9.265686E0,1.9371592E1,1.9538422E0,1.1624461E0],"tree_param":{"num_deleted":"0","num_feature":"33","num_nodes":"59","size_leaf_vector":"1"}},{"base_weights":[2.5276733E-3,-6.6027254E-1,2.5763512E-1,-9.4095373E-1,-3.2830328E-1,4.1571984E-1,-4.466471E-1,3.6950037E-2,-1.0043654E0,-5.383085E-1,7.206555E-1,5.937628E-1,-8.267359E-3,-7.269338E-1,6.844976E-1,-2.0593217E-1,-1.0795616E0,-7.9623866E-1,1.7141786E-1,1.0459115E-1,1.7948046E-1,3.9673835E-1,8.3232766E-1,-6.770789E-1,3.536863E-1,-1.9995114E-1,-1.2014258E-1,9.5989466E-1,-2.973537E-2,4.4659298E-2,-6.301052E-2,-5.6472425E-3,-1.1304104E-1,-1.11443E-1,1.2458827E-4,6.950295E-2,-6.596387E-2,5.5350095E-2,-2.8383777E-2,7.938515E-2,2.3449525E-2,1.0875025E-1,5.353228E-2,-9.431972E-2,3.579438E-2,-2.1049595E-3,1.00134276E-1,-5.334543E-2,9.266146E-2,2.7831603E-2,1.0766208E-1],"categories":[],"categories_nodes":[],"categories_segments":[],"categories_sizes":[],"default_left":[0,0,0,0,0,0,0,0,0,0,0,0,0,0,0,0,0,0,0,0,0,0,0,0,0,0,0,0,0,0,0,0,0,0,0,0,0,0,0,0,0,0,0,0,0,0,0,0,0,0,0],"id":15,"left_children":[1,3,5,7,9,11,13,-1,15,17,19,21,23,25,27,29,31,33,35,-1,37,39,41,43,45,47,-1,49,-1,-1,-1,-1,-1,-1,-1,-1,-1,-1,-1,-1,-1,-1,-1,-1,-1,-1,-1,-1,-1,-1,-1],"loss_changes":[3.482167E1,5.0242767E0,1.6741222E1,2.9038086E0,6.5027742E0,9.211254E0,9.292639E0,0E0,1.5392666E0,4.475117E0,7.025771E-1,3.7075386E0,9.209408E0,5.4401007E0,1.9142785E0,1.3224276E0,1.318903E0,4.457367E0,3.565568E0,0E0,6.953242E-1,2.9682174E0,2.293623E0,4.015978E0,6.0155773E0,4.9888706E0,0E0,9.34453E-2,0E0,0E0,0E0,0E0,0E0,0E0,0E0,0E0,0E0,0E0,0E0,0E0,0E0,0E0,0E0,0E0,0E0,0E0,0E0,0E0,0E0,0E0,0E0],"parents":[2147483647,0,0,1,1,2,2,3,3,4,4,5,5,6,6,8,8,9,9,10,10,11,11,12,12,13,13,14,14,15,15,16,16,17,17,18,18,20,20,21,21,22,22,23,23,24,24,25,25,27,27],"right_children":[2,4,6,8,10,12,14,-1,16,18,20,22,24,26,28,30,32,34,36,-1,38,40,42,44,46,48,-1,50,-1,-1,-1,-1,-1,-1,-1,-1,-1,-1,-1,-1,-1,-1,-1,-1,-1,-1,-1,-1,-1,-1,-1],"split_conditions":[-8.6365116E-1,1.1445583E0,1.2094004E0,-1.5595391E0,2.4954896E0,8.9529896E-1,1.9348545E0,3.6950037E-2,-1.4858947E0,1.7130615E0,-8.166153E-1,6.41937E-1,-6.6413546E-1,-6.140561E-2,8.878784E-1,-8.340118E-1,-1.7455744E0,1.9348545E0,5.608846E-1,1.0459115E-1,-4.5746785E-2,-9.2964786E-1,4.10942E-5,2.4006357E0,1.1445583E0,1.7130615E0,-1.2014258E-1,-6.1806387E-1,-2.973537E-2,4.4659298E-2,-6.301052E-2,-5.6472425E-3,-1.1304104E-1,-1.11443E-1,1.2458827E-4,6.950295E-2,-6.596387E-2,5.5350095E-2,-2.8383777E-2,7.938515E-2,2.3449525E-2,1.0875025E-1,5.353228E-2,-9.431972E-2,3.579438E-2,-2.1049595E-3,1.00134276E-1,-5.334543E-2,9.266146E-2,2.7831603E-2,1.0766208E-1],"split_indices":[22,25,23,18,28,24,27,0,8,26,4,22,0,24,24,7,22,27,24,0,24,23,24,12,25,26,0,4,0,0,0,0,0,0,0,0,0,0,0,0,0,0,0,0,0,0,0,0,0,0,0],"split_type":[0,0,0,0,0,0,0,0,0,0,0,0,0,0,0,0,0,0,0,0,0,0,0,0,0,0,0,0,0,0,0,0,0,0,0,0,0,0,0,0,0,0,0,0,0,0,0,0,0,0,0],"sum_hessian":[2.0393544E2,5.6236904E1,1.4769855E2,2.9478373E1,2.6758532E1,1.2095781E2,2.674073E1,1.1378E0,2.8340572E1,2.2700605E1,4.0579243E0,8.490403E1,3.6053783E1,2.1716852E1,5.0238776E0,2.7611594E0,2.5579414E1,1.6560326E1,6.1402817E0,1.9520432E0,2.1058812E0,4.795898E1,3.694505E1,1.2354583E1,2.3699202E1,1.096275E1,1.0754102E1,3.9408743E0,1.0830035E0,1.0669558E0,1.6942036E0,1.3110693E0,2.4268345E1,1.1553228E1,5.007097E0,3.8673296E0,2.272952E0,1.0575296E0,1.0483518E0,1.2781489E1,3.517749E1,1.8440308E1,1.850474E1,9.898312E0,2.4562716E0,1.5625652E1,8.073548E0,8.864904E0,2.0978465E0,1.0710765E0,2.8697977E0],"tree_param":{"num_deleted":"0","num_feature":"33","num_nodes":"51","size_leaf_vector":"1"}},{"base_weights":[3.9170235E-2,-5.6582105E-1,2.5474912E-1,-7.991973E-1,-5.9923828E-3,9.72433E-2,8.556673E-1,-3.7598208E-1,-9.654323E-1,-4.4729388E-1,4.356895E-1,-1.5633881E-1,8.101035E-1,9.600825E-1,-5.2007228E-2,-5.636553E-1,7.895233E-2,-1.0373683E0,-2.7628702E-1,-8.487647E-1,1.9046943E-1,-5.200685E-2,7.4134606E-1,-4.890551E-1,4.766846E-1,7.699863E-2,9.8520416E-1,1.048675E0,-1.8230341E-2,5.893448E-3,-7.766896E-2,-1.29375635E-2,-1.08461894E-1,-7.685592E-2,3.586794E-2,-9.909937E-2,-1.151123E-2,-3.8804363E-2,7.79359E-2,1.9555459E-2,1.1915509E-1,-7.377919E-2,7.587971E-2,1.4129798E-2,9.019879E-2,7.555123E-2,-7.350989E-2,1.04158305E-1,-3.987556E-3,4.926804E-2,1.1631397E-1],"categories":[],"categories_nodes":[],"categories_segments":[],"categories_sizes":[],"default_left":[0,0,0,0,0,0,0,0,0,0,0,0,0,0,0,0,0,0,0,0,0,0,0,0,0,0,0,0,0,0,0,0,0,0,0,0,0,0,0,0,0,0,0,0,0,0,0,0,0,0,0],"id":16,"left_children":[1,3,5,7,9,11,13,15,17,19,21,23,25,27,-1,29,-1,31,33,35,37,-1,39,41,43,45,47,49,-1,-1,-1,-1,-1,-1,-1,-1,-1,-1,-1,-1,-1,-1,-1,-1,-1,-1,-1,-1,-1,-1,-1],"loss_changes":[2.5823828E1,6.7940598E0,1.3721832E1,2.2203903E0,3.3755507E0,2.122125E1,4.8321075E0,3.0684175E0,9.887676E-1,2.3779926E0,2.9160652E0,1.8538536E1,3.8753834E0,3.0640507E0,0E0,1.4932783E0,0E0,8.4353065E-1,1.4617827E0,4.593494E-1,1.7198876E0,0E0,1.4809959E0,1.8395737E1,4.2159276E0,4.4231286E0,1.4725704E0,1.1128979E0,0E0,0E0,0E0,0E0,0E0,0E0,0E0,0E0,0E0,0E0,0E0,0E0,0E0,0E0,0E0,0E0,0E0,0E0,0E0,0E0,0E0,0E0,0E0],"parents":[2147483647,0,0,1,1,2,2,3,3,4,4,5,5,6,6,7,7,8,8,9,9,10,10,11,11,12,12,13,13,15,15,17,17,18,18,19,19,20,20,22,22,23,23,24,24,25,25,26,26,27,27],"right_children":[2,4,6,8,10,12,14,16,18,20,22,24,26,28,-1,30,-1,32,34,36,38,-1,40,42,44,46,48,50,-1,-1,-1,-1,-1,-1,-1,-1,-1,-1,-1,-1,-1,-1,-1,-1,-1,-1,-1,-1,-1,-1,-1],"split_conditions":[-9.037081E-1,1.9348545E0,1.9348545E0,-6.540326E-1,1.1445583E0,1.7130615E0,1.5323665E0,-7.8718555E-1,1.4643607E0,1.5172215E0,-1.2106012E0,1.1445583E0,-1.2926439E0,1.5304122E0,-5.2007228E-2,-1.6264147E0,7.895233E-2,-1.5686697E0,-1.4389975E0,1.0325416E0,1.7130615E0,-5.200685E-2,6.270768E-1,2.4954896E0,1.1367437E-1,4.916153E-1,4.364358E0,-1.1826754E0,-1.8230341E-2,5.893448E-3,-7.766896E-2,-1.29375635E-2,-1.08461894E-1,-7.685592E-2,3.586794E-2,-9.909937E-2,-1.151123E-2,-3.8804363E-2,7.79359E-2,1.9555459E-2,1.1915509E-1,-7.377919E-2,7.587971E-2,1.4129798E-2,9.019879E-2,7.555123E-2,-7.350989E-2,1.04158305E-1,-3.987556E-3,4.926804E-2,1.1631397E-1],"split_indices":[22,27,27,18,25,26,9,18,7,31,8,25,20,24,0,22,0,4,22,18,26,0,16,28,0,23,15,0,0,0,0,0,0,0,0,0,0,0,0,0,0,0,0,0,0,0,0,0,0,0,0],"split_type":[0,0,0,0,0,0,0,0,0,0,0,0,0,0,0,0,0,0,0,0,0,0,0,0,0,0,0,0,0,0,0,0,0,0,0,0,0,0,0,0,0,0,0,0,0,0,0,0,0,0,0],"sum_hessian":[1.9589487E2,5.1038357E1,1.448565E2,3.5720108E1,1.5318248E1,1.15693954E2,2.9162554E1,1.0993547E1,2.472656E1,7.656068E0,7.66218E0,8.5913185E1,2.9780771E1,2.7386147E1,1.7764068E0,9.913612E0,1.0799346E0,2.1931915E1,2.794646E0,4.495385E0,3.160683E0,1.6866649E0,5.9755154E0,5.646348E1,2.9449701E1,6.01927E0,2.3761501E1,2.5491314E1,1.8948315E0,2.7117927E0,7.20182E0,1.2697533E0,2.066216E1,1.4556932E0,1.3389527E0,3.4715993E0,1.023786E0,1.7664332E0,1.3942496E0,3.349375E0,2.62614E0,4.7419926E1,9.043553E0,1.7210241E1,1.2239462E1,3.3173099E0,2.7019598E0,2.2507502E1,1.2540002E0,5.2575927E0,2.0233723E1],"tree_param":{"num_deleted":"0","num_feature":"33","num_nodes":"51","size_leaf_vector":"1"}},{"base_weights":[-1.6919447E-3,-5.40807E-1,2.0831886E-1,-2.57332E-1,-8.1250346E-1,3.4878114E-1,-4.4489765E-1,-6.501357E-1,2.1589285E-1,-9.2408824E-1,-3.1407142E-1,8.248402E-1,1.1965023E-1,-7.8174704E-1,1.9750942E-1,-8.4585625E-1,1.8363471E-1,-3.3001903E-1,6.4068365E-1,-1.0088099E0,-2.3093167E-1,2.6185507E-1,-6.335159E-1,9.217105E-1,2.2173235E-1,-5.698989E-2,8.6387527E-1,1.936784E-1,-9.5969933E-1,-1.5810266E-1,8.863836E-2,3.1716872E-2,-9.842705E-2,-5.387464E-2,6.6877395E-2,-1.0179684E-1,4.2521294E-2,9.6514255E-2,-1.7901093E-3,-1.052547E-1,-1.1795744E-2,3.856111E-2,-7.0107765E-2,5.925733E-2,-1.9674368E-2,-8.68658E-2,3.7520311E-3,9.9846184E-2,2.4838421E-2,7.478008E-2,-1.0511141E-1,-3.687276E-2,7.54632E-2,-2.7689456E-3,1.0926624E-1,1.0218165E-1,-7.095413E-2,-1.1039068E-1,-2.1352572E-2,-4.961629E-2,7.816494E-2],"categories":[],"categories_nodes":[],"categories_segments":[],"categories_sizes":[],"default_left":[0,0,0,0,0,0,0,0,0,0,0,0,0,0,0,0,0,0,0,0,0,0,0,0,0,0,0,0,0,0,0,0,0,0,0,0,0,0,0,0,0,0,0,0,0,0,0,0,0,0,0,0,0,0,0,0,0,0,0,0,0],"id":17,"left_children":[1,3,5,7,9,11,13,15,17,19,21,23,25,27,29,31,33,35,37,39,41,43,45,47,49,51,53,55,57,59,-1,-1,-1,-1,-1,-1,-1,-1,-1,-1,-1,-1,-1,-1,-1,-1,-1,-1,-1,-1,-1,-1,-1,-1,-1,-1,-1,-1,-1,-1,-1],"loss_changes":[2.1823479E1,3.9526997E0,1.2883245E1,5.328051E0,1.2185364E0,1.2416271E1,5.562093E0,2.684576E0,3.3209581E0,1.0384674E0,1.3575146E0,1.9636669E0,1.0385006E1,3.0665045E0,2.4415236E0,2.361597E0,1.6808976E0,3.8245213E0,1.7013254E0,6.159725E-1,1.3297741E0,5.7437426E-1,7.3611987E-1,1.3879833E0,5.106532E0,1.6592451E1,3.1191692E0,3.262625E0,1.2925758E0,2.6258464E0,0E0,0E0,0E0,0E0,0E0,0E0,0E0,0E0,0E0,0E0,0E0,0E0,0E0,0E0,0E0,0E0,0E0,0E0,0E0,0E0,0E0,0E0,0E0,0E0,0E0,0E0,0E0,0E0,0E0,0E0,0E0],"parents":[2147483647,0,0,1,1,2,2,3,3,4,4,5,5,6,6,7,7,8,8,9,9,10,10,11,11,12,12,13,13,14,14,15,15,16,16,17,17,18,18,19,19,20,20,21,21,22,22,23,23,24,24,25,25,26,26,27,27,28,28,29,29],"right_children":[2,4,6,8,10,12,14,16,18,20,22,24,26,28,30,32,34,36,38,40,42,44,46,48,50,52,54,56,58,60,-1,-1,-1,-1,-1,-1,-1,-1,-1,-1,-1,-1,-1,-1,-1,-1,-1,-1,-1,-1,-1,-1,-1,-1,-1,-1,-1,-1,-1,-1,-1],"split_conditions":[-8.6365116E-1,-1.5486443E-1,1.2841511E0,1.1445583E0,2.4954896E0,-2.8318134E-1,1.1445583E0,2.4954896E0,-7.888322E-1,1.3572019E0,-8.93841E-1,1.2244148E0,1.9348545E0,-1.2622713E0,1.7130615E0,-1.5595391E0,-6.294743E-1,-9.432535E-1,-1.7535469E-1,1.5830554E0,2.8652102E-1,-9.485062E-1,6.973076E-1,1.3777742E0,1.0030662E0,1.7130615E0,-8.262297E-1,-4.1115656E-3,1.9348545E0,1.9348545E0,8.863836E-2,3.1716872E-2,-9.842705E-2,-5.387464E-2,6.6877395E-2,-1.0179684E-1,4.2521294E-2,9.6514255E-2,-1.7901093E-3,-1.052547E-1,-1.1795744E-2,3.856111E-2,-7.0107765E-2,5.925733E-2,-1.9674368E-2,-8.68658E-2,3.7520311E-3,9.9846184E-2,2.4838421E-2,7.478008E-2,-1.0511141E-1,-3.687276E-2,7.54632E-2,-2.7689456E-3,1.0926624E-1,1.0218165E-1,-7.095413E-2,-1.1039068E-1,-2.1352572E-2,-4.961629E-2,7.816494E-2],"split_indices":[22,24,23,25,28,24,25,28,7,6,4,18,27,8,26,18,9,24,21,17,0,6,18,9,4,26,4,4,27,27,0,0,0,0,0,0,0,0,0,0,0,0,0,0,0,0,0,0,0,0,0,0,0,0,0,0,0,0,0,0,0],"split_type":[0,0,0,0,0,0,0,0,0,0,0,0,0,0,0,0,0,0,0,0,0,0,0,0,0,0,0,0,0,0,0,0,0,0,0,0,0,0,0,0,0,0,0,0,0,0,0,0,0,0,0,0,0,0,0,0,0,0,0,0,0],"sum_hessian":[1.9075781E2,5.303569E1,1.3772212E2,2.690815E1,2.612754E1,1.13732155E2,2.398997E1,1.4499169E1,1.2408979E1,2.065049E1,5.4770503E0,3.6109203E1,7.7622955E1,1.5595491E1,8.394478E0,1.1730936E1,2.768234E0,5.5279465E0,6.8810334E0,1.7995579E1,2.6549103E0,2.0183845E0,3.4586658E0,3.0656872E1,5.4523306E0,6.3479633E1,1.4143323E1,2.392562E0,1.32029295E1,6.044608E0,2.3498693E0,1.1102896E0,1.0620646E1,1.0677848E0,1.7004492E0,2.710779E0,2.8171673E0,4.2980657E0,2.5829678E0,1.698041E1,1.0151707E0,1.226414E0,1.4284962E0,1.0029608E0,1.0154237E0,2.3431022E0,1.1155636E0,2.7086452E1,3.5704193E0,4.149738E0,1.3025925E0,4.6257988E1,1.7221645E1,3.0677037E0,1.1075619E1,1.1796592E0,1.2129027E0,1.0662789E1,2.5401406E0,4.792584E0,1.2520244E0],"tree_param":{"num_deleted":"0","num_feature":"33","num_nodes":"61","size_leaf_vector":"1"}},{"base_weights":[2.9628955E-2,-4.5377347E-1,1.9691512E-1,-1.5047216E-1,-8.3071655E-1,-2.1752506E-2,6.007189E-1,-3.6297423E-1,6.8668944E-1,1.8208126E-2,-9.323971E-1,-1.7578231E-1,8.3668435E-1,-1.8784554E-1,6.7092854E-1,-7.0754325E-1,3.4698918E-1,-2.5572358E-2,9.661143E-1,-1.0753732E0,-4.1463825E-1,2.5735432E-1,-4.7262076E-1,1.1605745E-1,1.375707E-1,-1.22132115E-1,6.401691E-2,-3.0129423E-2,7.122353E-1,-1.00905694E-1,-1.4724495E-2,8.275903E-2,-7.108778E-2,1.2467306E-1,9.486967E-3,-2.471764E-2,-1.12308085E-1,4.7929335E-2,-9.099848E-2,-3.6943804E-2,5.629539E-2,-7.032458E-2,3.4676008E-2,7.437251E-2,-5.8135208E-2,1.6739847E-2,8.1480645E-2],"categories":[],"categories_nodes":[],"categories_segments":[],"categories_sizes":[],"default_left":[0,0,0,0,0,0,0,0,0,0,0,0,0,0,0,0,0,0,0,0,0,0,0,0,0,0,0,0,0,0,0,0,0,0,0,0,0,0,0,0,0,0,0,0,0,0,0],"id":18,"left_children":[1,3,5,7,9,11,13,15,17,-1,19,21,23,25,27,29,31,-1,33,35,37,39,41,-1,43,-1,-1,-1,45,-1,-1,-1,-1,-1,-1,-1,-1,-1,-1,-1,-1,-1,-1,-1,-1,-1,-1],"loss_changes":[1.551665E1,5.5169516E0,1.2589085E1,5.331273E0,2.4129362E0,1.2491335E1,2.898016E0,5.979144E0,1.8610611E0,0E0,1.031559E0,1.0404996E1,3.0956917E0,4.953183E0,2.0696735E0,2.5727634E0,4.8230233E0,0E0,1.0886817E0,3.155403E-1,3.0691996E0,6.5618606E0,9.278553E0,0E0,2.9102762E0,0E0,0E0,0E0,2.3564796E0,0E0,0E0,0E0,0E0,0E0,0E0,0E0,0E0,0E0,0E0,0E0,0E0,0E0,0E0,0E0,0E0,0E0,0E0],"parents":[2147483647,0,0,1,1,2,2,3,3,4,4,5,5,6,6,7,7,8,8,10,10,11,11,12,12,13,13,14,14,15,15,16,16,18,18,19,19,20,20,21,21,22,22,24,24,28,28],"right_children":[2,4,6,8,10,12,14,16,18,-1,20,22,24,26,28,30,32,-1,34,36,38,40,42,-1,44,-1,-1,-1,46,-1,-1,-1,-1,-1,-1,-1,-1,-1,-1,-1,-1,-1,-1,-1,-1,-1,-1],"split_conditions":[-9.037081E-1,4.10942E-5,1.1445583E0,2.4954896E0,-1.5775884E0,2.4954896E0,-1.382632E0,1.7130615E0,-3.774372E-1,1.8208126E-2,8.1707275E-1,1.7417941E-2,7.1871364E-1,-6.7065984E-1,-1.6932703E0,1.9348545E0,1.7570938E0,-2.5572358E-2,1.30556E0,-1.4735874E0,1.0450679E0,-7.505588E-1,1.9348545E0,1.1605745E-1,-3.6309513E-1,-1.22132115E-1,6.401691E-2,-3.0129423E-2,-5.40035E-1,-1.00905694E-1,-1.4724495E-2,8.275903E-2,-7.108778E-2,1.2467306E-1,9.486967E-3,-2.471764E-2,-1.12308085E-1,4.7929335E-2,-9.099848E-2,-3.6943804E-2,5.629539E-2,-7.032458E-2,3.4676008E-2,7.437251E-2,-5.8135208E-2,1.6739847E-2,8.1480645E-2],"split_indices":[22,24,25,28,4,28,8,26,3,0,16,24,24,19,18,27,30,0,7,20,16,0,27,0,8,0,0,0,22,0,0,0,0,0,0,0,0,0,0,0,0,0,0,0,0,0,0],"split_type":[0,0,0,0,0,0,0,0,0,0,0,0,0,0,0,0,0,0,0,0,0,0,0,0,0,0,0,0,0,0,0,0,0,0,0,0,0,0,0,0,0,0,0,0,0,0,0],"sum_hessian":[1.8977478E2,4.8349102E1,1.4142567E2,2.7566967E1,2.0782135E1,9.235809E1,4.906758E1,2.2437849E1,5.1291194E0,1.8239372E0,1.8958197E1,7.898161E1,1.3376485E1,3.8745713E0,4.519301E1,1.5108564E1,7.329284E0,1.192388E0,3.9367313E0,1.4011911E1,4.9462857E0,3.217132E1,4.6810287E1,8.690312E0,4.686173E0,1.512173E0,2.3623981E0,1.5853387E0,4.360767E1,9.301965E0,5.8065996E0,5.1893725E0,2.1399114E0,2.6516833E0,1.285048E0,1.0998449E0,1.2912066E1,1.7751511E0,3.1711347E0,1.0475964E1,2.1695358E1,3.6639404E1,1.0170883E1,2.523773E0,2.1623998E0,7.3259187E0,3.6281754E1],"tree_param":{"num_deleted":"0","num_feature":"33","num_nodes":"47","size_leaf_vector":"1"}},{"base_weights":[1.1036552E-2,-4.6208248E-1,1.7269196E-1,-7.707446E-1,-1.2184071E-1,5.620753E-1,-9.6259624E-2,3.6563E-2,-8.4108347E-1,3.0274534E-1,-7.2280294E-1,7.240339E-1,3.881147E-2,-2.3833434E-1,7.351488E-1,-9.508803E-1,-1.5723278E-1,5.661561E-1,-9.116341E-2,-8.9446473E-1,2.2861553E-2,3.252928E-1,8.871097E-1,-2.115756E-1,9.120583E-2,-4.919879E-1,2.5080377E-1,9.897784E-1,-5.6171905E-2,2.707099E-3,-1.0150453E-1,6.948309E-2,-6.217133E-2,8.350632E-2,-4.4363797E-2,-1.04099825E-1,-5.020027E-3,-1.16934136E-1,5.5101182E-2,-3.0542035E-3,9.379232E-2,5.217896E-2,-6.530969E-2,-7.7110864E-2,1.9117875E-2,-3.7531342E-2,6.103344E-2,1.1209241E-1,7.194718E-3],"categories":[],"categories_nodes":[],"categories_segments":[],"categories_sizes":[],"default_left":[0,0,0,0,0,0,0,0,0,0,0,0,0,0,0,0,0,0,0,0,0,0,0,0,0,0,0,0,0,0,0,0,0,0,0,0,0,0,0,0,0,0,0,0,0,0,0,0,0],"id":19,"left_children":[1,3,5,7,9,11,13,-1,15,17,19,21,23,25,27,29,31,33,-1,35,-1,37,39,41,-1,43,45,47,-1,-1,-1,-1,-1,-1,-1,-1,-1,-1,-1,-1,-1,-1,-1,-1,-1,-1,-1,-1,-1],"loss_changes":[1.4057441E1,4.822481E0,1.439547E1,2.2545204E0,6.2037625E0,4.725519E0,9.843611E0,0E0,1.5955715E0,5.1382656E0,1.8386965E0,2.4930305E0,3.3228214E0,8.890338E0,4.581546E0,1.2716923E0,2.1786828E0,3.7622504E0,0E0,1.0215926E0,0E0,5.366041E0,1.4173336E0,4.2057333E0,0E0,9.084571E0,5.8099365E0,1.1894798E0,0E0,0E0,0E0,0E0,0E0,0E0,0E0,0E0,0E0,0E0,0E0,0E0,0E0,0E0,0E0,0E0,0E0,0E0,0E0,0E0,0E0],"parents":[2147483647,0,0,1,1,2,2,3,3,4,4,5,5,6,6,8,8,9,9,10,10,11,11,12,12,13,13,14,14,15,15,16,16,17,17,19,19,21,21,22,22,23,23,25,25,26,26,27,27],"right_children":[2,4,6,8,10,12,14,-1,16,18,20,22,24,26,28,30,32,34,-1,36,-1,38,40,42,-1,44,46,48,-1,-1,-1,-1,-1,-1,-1,-1,-1,-1,-1,-1,-1,-1,-1,-1,-1,-1,-1,-1,-1],"split_conditions":[-9.037081E-1,1.1445583E0,-1.1247003E-2,-1.5595391E0,4.10942E-5,1.2554772E0,2.4954896E0,3.6563E-2,1.254483E0,1.1073146E0,1.3863198E0,-9.234054E-1,1.7130615E0,1.1445583E0,1.2094004E0,-1.5775884E0,-7.7030027E-1,1.0490245E0,-9.116341E-2,2.4954896E0,2.2861553E-2,-1.3488808E0,-7.906792E-1,-4.664809E-1,9.120583E-2,1.7130615E0,-7.505588E-1,1.2311182E0,-5.6171905E-2,2.707099E-3,-1.0150453E-1,6.948309E-2,-6.217133E-2,8.350632E-2,-4.4363797E-2,-1.04099825E-1,-5.020027E-3,-1.16934136E-1,5.5101182E-2,-3.0542035E-3,9.379232E-2,5.217896E-2,-6.530969E-2,-7.7110864E-2,1.9117875E-2,-3.7531342E-2,6.103344E-2,1.1209241E-1,7.194718E-3],"split_indices":[22,25,24,18,24,23,28,0,20,9,6,0,26,25,23,4,24,8,0,28,0,16,22,6,0,26,0,17,0,0,0,0,0,0,0,0,0,0,0,0,0,0,0,0,0,0,0,0,0],"split_type":[0,0,0,0,0,0,0,0,0,0,0,0,0,0,0,0,0,0,0,0,0,0,0,0,0,0,0,0,0,0,0,0,0,0,0,0,0,0,0,0,0,0,0,0,0,0,0,0,0],"sum_hessian":[1.8175668E2,4.581395E1,1.3594273E2,2.335834E1,2.245561E1,5.509185E1,8.085088E1,1.1168419E0,2.2241497E1,1.3449576E1,9.006034E0,4.177739E1,1.3314459E1,6.9660355E1,1.1190531E1,1.8828047E1,3.4134488E0,1.1490882E1,1.9586945E0,7.6801815E0,1.3258522E0,1.2995785E1,2.8781605E1,1.0936374E1,2.3780851E0,4.5868423E1,2.379193E1,9.5518875E0,1.638643E0,1.194873E0,1.7633175E1,1.0293086E0,2.3841403E0,9.21103E0,2.279852E0,6.3457646E0,1.3344169E0,1.1566074E0,1.1839177E1,1.5310459E0,2.7250559E1,4.041559E0,6.894814E0,3.2472458E1,1.3395965E1,8.66247E0,1.5129459E1,8.164076E0,1.3878119E0],"tree_param":{"num_deleted":"0","num_feature":"33","num_nodes":"49","size_leaf_vector":"1"}},{"base_weights":[2.2600697E-2,-4.7608504E-1,1.8562193E-1,-7.100732E-1,-2.0886466E-2,5.621637E-1,-7.1892925E-2,-2.1061242E-1,-8.287605E-1,-2.577245E-1,6.761236E-1,7.183843E-1,-5.534822E-2,-2.7279904E-1,7.047474E-1,4.1933894E-1,-6.103854E-1,-2.500574E-1,-9.0960795E-1,-5.994813E-1,1.943136E-1,9.144167E-2,1.9745125E-2,4.3415004E-1,1.052627E-1,4.9913126E-1,-4.428941E-1,-5.825622E-1,4.908519E-1,-6.2331505E-2,1.0402205E0,-8.239551E-3,6.9208026E-2,1.5642023E-2,-8.739202E-2,3.415984E-2,-7.33824E-2,-1.03338376E-1,-3.698141E-2,-7.7692084E-2,2.6415993E-2,5.9760835E-2,-6.7240976E-2,-7.838085E-3,7.020544E-2,-1.3349133E-2,8.2397476E-2,-1.04474545E-1,9.03025E-3,-7.3844E-2,5.3959996E-2,7.576224E-2,-5.5630304E-2,4.275813E-2,-9.973191E-2,1.14948325E-1,4.109097E-3],"categories":[],"categories_nodes":[],"categories_segments":[],"categories_sizes":[],"default_left":[0,0,0,0,0,0,0,0,0,0,0,0,0,0,0,0,0,0,0,0,0,0,0,0,0,0,0,0,0,0,0,0,0,0,0,0,0,0,0,0,0,0,0,0,0,0,0,0,0,0,0,0,0,0,0,0,0],"id":20,"left_children":[1,3,5,7,9,11,13,15,17,19,21,23,25,27,29,31,33,35,37,39,41,-1,-1,43,-1,45,47,49,51,53,55,-1,-1,-1,-1,-1,-1,-1,-1,-1,-1,-1,-1,-1,-1,-1,-1,-1,-1,-1,-1,-1,-1,-1,-1,-1,-1],"loss_changes":[1.4383993E1,4.629339E0,1.2960342E1,1.5308495E0,2.7881079E0,5.2710876E0,1.2677066E1,1.9846821E0,8.441601E-1,2.0541084E0,3.0897987E-1,3.6614876E0,2.7733715E0,1.5494001E1,4.3684235E0,5.0282943E-1,1.0676147E0,1.449012E0,9.35236E-1,1.3372719E0,2.553324E0,0E0,0E0,3.5056248E0,0E0,1.2107737E0,2.5078645E0,8.478935E0,5.7558246E0,3.1894598E0,1.229125E0,0E0,0E0,0E0,0E0,0E0,0E0,0E0,0E0,0E0,0E0,0E0,0E0,0E0,0E0,0E0,0E0,0E0,0E0,0E0,0E0,0E0,0E0,0E0,0E0,0E0,0E0],"parents":[2147483647,0,0,1,1,2,2,3,3,4,4,5,5,6,6,7,7,8,8,9,9,10,10,11,11,12,12,13,13,14,14,15,15,16,16,17,17,18,18,19,19,20,20,23,23,25,25,26,26,27,27,28,28,29,29,30,30],"right_children":[2,4,6,8,10,12,14,16,18,20,22,24,26,28,30,32,34,36,38,40,42,-1,-1,44,-1,46,48,50,52,54,56,-1,-1,-1,-1,-1,-1,-1,-1,-1,-1,-1,-1,-1,-1,-1,-1,-1,-1,-1,-1,-1,-1,-1,-1,-1,-1],"split_conditions":[-9.275034E-1,1.7130615E0,4.10942E-5,-1.1735024E0,1.9348545E0,1.2729641E0,1.9348545E0,-4.043242E-1,-1.3323584E0,1.1445583E0,-6.7505795E-1,4.3327728E-1,-1.3229133E-1,1.7130615E0,-6.6413546E-1,-4.9128884E-1,-1.6030102E0,2.746748E-1,1.0030662E0,1.3490614E0,7.6248956E-1,9.144167E-2,1.9745125E-2,-1.1739124E0,1.052627E-1,-7.4588543E-1,-3.1844223E-1,2.4954896E0,1.1087664E0,1.3778447E0,1.0804087E0,-8.239551E-3,6.9208026E-2,1.5642023E-2,-8.739202E-2,3.415984E-2,-7.33824E-2,-1.03338376E-1,-3.698141E-2,-7.7692084E-2,2.6415993E-2,5.9760835E-2,-6.7240976E-2,-7.838085E-3,7.020544E-2,-1.3349133E-2,8.2397476E-2,-1.04474545E-1,9.03025E-3,-7.3844E-2,5.3959996E-2,7.576224E-2,-5.5630304E-2,4.275813E-2,-9.973191E-2,1.14948325E-1,4.109097E-3],"split_indices":[22,26,24,19,27,23,27,24,7,25,4,22,20,26,0,0,22,21,4,16,18,0,0,24,0,18,0,28,23,24,23,0,0,0,0,0,0,0,0,0,0,0,0,0,0,0,0,0,0,0,0,0,0,0,0,0,0],"split_type":[0,0,0,0,0,0,0,0,0,0,0,0,0,0,0,0,0,0,0,0,0,0,0,0,0,0,0,0,0,0,0,0,0,0,0,0,0,0,0,0,0,0,0,0,0,0,0,0,0,0,0,0,0,0,0,0,0],"sum_hessian":[1.7484576E2,4.2602703E1,1.3224306E2,2.7768696E1,1.4834008E1,5.322853E1,7.901453E1,5.8644404E0,2.1904257E1,1.1542283E1,3.2917254E0,4.235104E1,1.0877491E1,6.329081E1,1.5723714E1,2.2577682E0,3.6066723E0,3.1867275E0,1.871753E1,6.3871765E0,5.155106E0,1.5899146E0,1.7018108E0,2.413011E1,1.822093E1,4.3565083E0,6.5209823E0,4.519521E1,1.80956E1,5.031984E0,1.069173E1,1.040875E0,1.2168932E0,1.0264549E0,2.5802174E0,1.5657108E0,1.6210167E0,1.4482304E1,4.2352247E0,5.381859E0,1.0053176E0,3.7299988E0,1.4251074E0,8.526121E0,1.560399E1,1.6779033E0,2.678605E0,2.6125917E0,3.9083905E0,3.9983162E1,5.2120485E0,1.4641949E1,3.453651E0,3.6579742E0,1.3740098E0,9.502113E0,1.1896168E0],"tree_param":{"num_deleted":"0","num_feature":"33","num_nodes":"57","size_leaf_vector":"1"}},{"base_weights":[-1.1507116E-2,-4.4229713E-1,1.4622252E-1,-5.91902E-1,1.3562469E-1,2.8906167E-1,-4.6165696E-1,-6.923269E-1,5.077701E-2,3.76442E-1,-7.4818045E-2,-1.6894831E-1,4.9872845E-1,-6.191419E-1,5.009188E-1,-7.5440353E-1,-3.9858688E-3,-2.2988701E-1,5.634577E-2,6.5265995E-1,-5.1343065E-2,-3.601291E-1,7.91857E-1,3.5037872E-1,1.0032166E0,-7.306728E-1,6.638834E-2,9.190109E-2,-1.6828967E-2,1.5267673E-2,-7.948514E-2,-4.830038E-2,5.569298E-2,5.8524486E-2,-6.4991854E-2,-2.2655746E-2,8.488055E-2,-6.024717E-2,5.4044165E-2,1.4315672E-2,9.663363E-2,1.858815E-2,9.4103746E-2,1.05658926E-1,1.2170608E-2,-9.225806E-2,1.2569645E-2],"categories":[],"categories_nodes":[],"categories_segments":[],"categories_sizes":[],"default_left":[0,0,0,0,0,0,0,0,0,0,0,0,0,0,0,0,0,0,0,0,0,0,0,0,0,0,0,0,0,0,0,0,0,0,0,0,0,0,0,0,0,0,0,0,0,0,0],"id":21,"left_children":[1,3,5,7,9,11,13,15,17,19,-1,21,23,25,27,29,31,33,-1,35,-1,37,39,41,43,45,-1,-1,-1,-1,-1,-1,-1,-1,-1,-1,-1,-1,-1,-1,-1,-1,-1,-1,-1,-1,-1],"loss_changes":[1.1639139E1,4.048959E0,1.1025287E1,2.4005384E0,2.4637713E0,9.897281E0,3.9866066E0,1.3542986E0,9.7626555E-1,2.4790735E0,0E0,6.316799E0,4.9136295E0,3.531581E0,1.2634077E0,1.1901875E0,1.2451409E0,1.9255224E0,0E0,1.4161527E0,0E0,6.4527235E0,5.13839E-1,5.2565594E0,5.982952E-1,3.4132195E0,0E0,0E0,0E0,0E0,0E0,0E0,0E0,0E0,0E0,0E0,0E0,0E0,0E0,0E0,0E0,0E0,0E0,0E0,0E0,0E0,0E0],"parents":[2147483647,0,0,1,1,2,2,3,3,4,4,5,5,6,6,7,7,8,8,9,9,11,11,12,12,13,13,14,14,15,15,16,16,17,17,19,19,21,21,22,22,23,23,24,24,25,25],"right_children":[2,4,6,8,10,12,14,16,18,20,-1,22,24,26,28,30,32,34,-1,36,-1,38,40,42,44,46,-1,-1,-1,-1,-1,-1,-1,-1,-1,-1,-1,-1,-1,-1,-1,-1,-1,-1,-1,-1,-1],"split_conditions":[-8.6365116E-1,2.4954896E0,1.2554772E0,1.3098391E0,1.0290921E0,-7.505588E-1,2.4954896E0,1.500702E0,1.9348545E0,8.1555617E-1,-7.4818045E-2,2.4006357E0,1.7130615E0,1.4421086E0,5.536924E-1,-1.7455744E0,4.5936763E-1,-1.3977815E0,5.634577E-2,-8.976763E-1,-5.1343065E-2,2.002974E0,-1.0986474E0,1.9348545E0,9.9737847E-1,1.9348545E0,6.638834E-2,9.190109E-2,-1.6828967E-2,1.5267673E-2,-7.948514E-2,-4.830038E-2,5.569298E-2,5.8524486E-2,-6.4991854E-2,-2.2655746E-2,8.488055E-2,-6.024717E-2,5.4044165E-2,1.4315672E-2,9.663363E-2,1.858815E-2,9.4103746E-2,1.05658926E-1,1.2170608E-2,-9.225806E-2,1.2569645E-2],"split_indices":[22,28,23,6,23,0,28,21,27,24,0,12,26,9,24,22,0,8,0,9,0,14,18,27,23,27,0,0,0,0,0,0,0,0,0,0,0,0,0,0,0,0,0,0,0,0,0],"split_type":[0,0,0,0,0,0,0,0,0,0,0,0,0,0,0,0,0,0,0,0,0,0,0,0,0,0,0,0,0,0,0,0,0,0,0,0,0,0,0,0,0,0,0,0,0,0,0],"sum_hessian":[1.693421E2,4.490198E1,1.2444012E2,3.564935E1,9.252632E0,1.0118759E2,2.3252525E1,3.07648E1,4.8845506E0,7.7224913E0,1.5301408E0,3.1836355E1,6.9351234E1,2.0289751E1,2.9627748E0,2.8131815E1,2.6329844E0,3.5129855E0,1.3715653E0,6.09665E0,1.6258413E0,2.7074299E1,4.7620564E0,5.4901443E1,1.444979E1,1.9063137E1,1.2266136E0,1.5937741E0,1.3690007E0,1.0824419E0,2.7049374E1,1.4950895E0,1.1378947E0,1.0608729E0,2.4521124E0,1.0837446E0,5.0129056E0,2.1594305E1,5.4799933E0,1.3952192E0,3.3668373E0,4.3970467E1,1.093098E1,1.3437577E1,1.012213E0,1.5510092E1,3.5530453E0],"tree_param":{"num_deleted":"0","num_feature":"33","num_nodes":"47","size_leaf_vector":"1"}},{"base_weights":[-7.444063E-3,-1.1427734E-1,6.541608E-1,-3.3103862E-1,2.1134806E-1,7.5456125E-1,-7.071685E-2,-7.783623E-1,-1.269906E-1,-3.39203E-1,4.2606345E-1,8.958432E-1,-6.0996834E-2,-9.889765E-1,-2.6122509E-2,-3.135956E-1,3.6108336E-1,2.0545386E-1,-6.97678E-1,-3.9126456E-1,5.2635264E-1,9.519357E-1,-3.2723253E-3,7.553422E-2,-7.3759235E-2,-1.21957816E-1,1.942347E-2,5.4871567E-2,-5.1886857E-2,-5.549239E-2,5.7493042E-2,6.487836E-2,-5.306707E-2,5.733918E-2,-5.7495035E-2,-8.859702E-2,4.6638165E-2,6.9235936E-2,-1.0000922E-1,-1.5880717E-2,6.327104E-2,1.804221E-2,1.0239025E-1],"categories":[],"categories_nodes":[],"categories_segments":[],"categories_sizes":[],"default_left":[0,0,0,0,0,0,0,0,0,0,0,0,0,0,0,0,0,0,0,0,0,0,0,0,0,0,0,0,0,0,0,0,0,0,0,0,0,0,0,0,0,0,0],"id":22,"left_children":[1,3,5,7,9,11,-1,13,15,17,19,21,23,25,27,29,31,33,35,37,39,41,-1,-1,-1,-1,-1,-1,-1,-1,-1,-1,-1,-1,-1,-1,-1,-1,-1,-1,-1,-1,-1],"loss_changes":[1.1925514E1,1.031903E1,3.7398672E0,7.893694E0,7.0765705E0,2.6277065E0,0E0,4.2891617E0,5.6989365E0,3.4644704E0,3.7003655E0,1.0258551E0,2.8954482E0,6.0352116E0,2.2631004E0,9.947203E0,4.8154526E0,2.4901693E0,2.7115126E0,4.1447597E0,2.8986244E0,8.170605E-1,0E0,0E0,0E0,0E0,0E0,0E0,0E0,0E0,0E0,0E0,0E0,0E0,0E0,0E0,0E0,0E0,0E0,0E0,0E0,0E0,0E0],"parents":[2147483647,0,0,1,1,2,2,3,3,4,4,5,5,7,7,8,8,9,9,10,10,11,11,12,12,13,13,14,14,15,15,16,16,17,17,18,18,19,19,20,20,21,21],"right_children":[2,4,6,8,10,12,-1,14,16,18,20,22,24,26,28,30,32,34,36,38,40,42,-1,-1,-1,-1,-1,-1,-1,-1,-1,-1,-1,-1,-1,-1,-1,-1,-1,-1,-1,-1,-1],"split_conditions":[2.4954896E0,1.1445583E0,1.5877004E0,-7.505588E-1,-9.363413E-1,1.2841511E0,-7.071685E-2,2.002974E0,1.7130615E0,-5.9606576E-1,-1.38688E0,1.5696048E0,-2.3201889E-1,2.4120145E0,-1.051557E-1,1.9348545E0,1.2554772E0,8.986613E-1,1.4829347E0,-2.2916324E-1,-1.2622713E0,-1.4797301E0,-3.2723253E-3,7.553422E-2,-7.3759235E-2,-1.21957816E-1,1.942347E-2,5.4871567E-2,-5.1886857E-2,-5.549239E-2,5.7493042E-2,6.487836E-2,-5.306707E-2,5.733918E-2,-5.7495035E-2,-8.859702E-2,4.6638165E-2,6.9235936E-2,-1.0000922E-1,-1.5880717E-2,6.327104E-2,1.804221E-2,1.0239025E-1],"split_indices":[28,25,8,0,22,23,0,14,26,24,16,6,0,13,20,27,23,23,21,23,8,22,0,0,0,0,0,0,0,0,0,0,0,0,0,0,0,0,0,0,0,0,0],"split_type":[0,0,0,0,0,0,0,0,0,0,0,0,0,0,0,0,0,0,0,0,0,0,0,0,0,0,0,0,0,0,0,0,0,0,0,0,0,0,0,0,0,0,0],"sum_hessian":[1.6666441E2,1.442059E2,2.2458515E1,8.656498E1,5.7640926E1,2.133103E1,1.1274841E0,2.6235558E1,6.0329422E1,1.6009987E1,4.163094E1,1.8097496E1,3.2335346E0,2.0250935E1,5.984622E0,4.3901917E1,1.6427505E1,6.5241876E0,9.4858E0,4.232873E0,3.7398064E1,1.7042814E1,1.0546824E0,1.4126866E0,1.820848E0,1.692216E1,3.328776E0,2.7097902E0,3.2748318E0,3.482006E1,9.081856E0,1.2626404E1,3.8011022E0,4.6140566E0,1.9101309E0,8.370696E0,1.115104E0,1.4733411E0,2.759532E0,4.958984E0,3.243908E1,1.7533379E0,1.5289476E1],"tree_param":{"num_deleted":"0","num_feature":"33","num_nodes":"43","size_leaf_vector":"1"}},{"base_weights":[-1.2563188E-2,-4.7592995E-1,1.3621183E-1,-6.724126E-1,-7.025855E-2,2.7108088E-1,-4.17297E-1,-7.776666E-1,-9.3929805E-2,2.72848E-1,-6.671029E-1,-1.7721283E-1,4.9538213E-1,-4.981432E-2,-8.175553E-1,-8.798574E-1,-5.3912925E-4,-4.574281E-1,5.579117E-2,4.9026623E-1,-6.73811E-2,-8.86827E-2,-1.6647024E-2,-3.5693902E-1,8.3976185E-1,8.7340367E-1,3.1801882E-1,-2.6371753E-1,7.490191E-2,-1.1334996E0,-1.5980768E-1,-2.831258E-3,-9.3988545E-2,-4.040685E-2,5.1680822E-2,1.0229409E-2,-7.458554E-2,-2.8667012E-2,7.461443E-2,-5.4569352E-2,5.2233417E-2,1.2376276E-2,9.878143E-2,9.318873E-2,-1.3473286E-2,1.6748048E-2,8.218236E-2,-5.5833824E-2,3.8251337E-2,-1.4286053E-2,-1.257015E-1,-6.1287243E-2,5.752299E-2],"categories":[],"categories_nodes":[],"categories_segments":[],"categories_sizes":[],"default_left":[0,0,0,0,0,0,0,0,0,0,0,0,0,0,0,0,0,0,0,0,0,0,0,0,0,0,0,0,0,0,0,0,0,0,0,0,0,0,0,0,0,0,0,0,0,0,0,0,0,0,0,0,0],"id":23,"left_children":[1,3,5,7,9,11,13,15,17,19,21,23,25,27,29,31,33,35,-1,37,-1,-1,-1,39,41,43,45,47,-1,49,51,-1,-1,-1,-1,-1,-1,-1,-1,-1,-1,-1,-1,-1,-1,-1,-1,-1,-1,-1,-1,-1,-1],"loss_changes":[1.1415935E1,3.1602669E0,9.475661E0,1.5705414E0,3.0996015E0,1.0288998E1,3.6314578E0,1.8023281E0,1.5092931E0,2.3384173E0,4.5637727E-1,6.618184E0,4.2735424E0,2.603548E0,2.2887301E0,9.988966E-1,9.684848E-1,7.135635E-1,0E0,1.9062908E0,0E0,0E0,0E0,5.2771654E0,4.5971727E-1,1.369936E0,3.485818E0,2.4690247E0,0E0,7.8271866E-1,2.0245101E0,0E0,0E0,0E0,0E0,0E0,0E0,0E0,0E0,0E0,0E0,0E0,0E0,0E0,0E0,0E0,0E0,0E0,0E0,0E0,0E0,0E0,0E0],"parents":[2147483647,0,0,1,1,2,2,3,3,4,4,5,5,6,6,7,7,8,8,9,9,10,10,11,11,12,12,13,13,14,14,15,15,16,16,17,17,19,19,23,23,24,24,25,25,26,26,27,27,29,29,30,30],"right_children":[2,4,6,8,10,12,14,16,18,20,22,24,26,28,30,32,34,36,-1,38,-1,-1,-1,40,42,44,46,48,-1,50,52,-1,-1,-1,-1,-1,-1,-1,-1,-1,-1,-1,-1,-1,-1,-1,-1,-1,-1,-1,-1,-1,-1],"split_conditions":[-9.275034E-1,1.7130615E0,1.2554772E0,1.1431427E0,6.358808E-1,-7.505588E-1,-2.742448E-2,2.3105123E0,1.0870308E0,1.4961814E0,1.1445583E0,2.4006357E0,-2.711459E-1,1.7130615E0,2.0586748E-1,-1.574003E0,3.5443854E-1,-7.2373486E-1,5.579117E-2,-9.234054E-1,-6.73811E-2,-8.86827E-2,-1.6647024E-2,1.9348545E0,-5.4419816E-1,1.5480716E0,1.7130615E0,1.1445583E0,7.490191E-2,-1.1737857E0,-2.5407952E-1,-2.831258E-3,-9.3988545E-2,-4.040685E-2,5.1680822E-2,1.0229409E-2,-7.458554E-2,-2.8667012E-2,7.461443E-2,-5.4569352E-2,5.2233417E-2,1.2376276E-2,9.878143E-2,9.318873E-2,-1.3473286E-2,1.6748048E-2,8.218236E-2,-5.5833824E-2,3.8251337E-2,-1.4286053E-2,-1.257015E-1,-6.1287243E-2,5.752299E-2],"split_indices":[22,26,23,6,9,0,24,2,18,7,25,12,24,26,21,20,6,9,0,0,0,0,0,27,24,9,26,25,0,17,9,0,0,0,0,0,0,0,0,0,0,0,0,0,0,0,0,0,0,0,0,0,0],"split_type":[0,0,0,0,0,0,0,0,0,0,0,0,0,0,0,0,0,0,0,0,0,0,0,0,0,0,0,0,0,0,0,0,0,0,0,0,0,0,0,0,0,0,0,0,0,0,0,0,0,0,0,0,0],"sum_hessian":[1.6365819E2,3.9241066E1,1.2441713E2,2.5993744E1,1.3247322E1,1.0045123E2,2.3965893E1,2.1700964E1,4.29278E0,8.756399E0,4.490923E0,3.3569126E1,6.688211E1,1.308074E1,1.0885153E1,1.9062138E1,2.638826E0,2.9474127E0,1.3453671E0,7.513004E0,1.243395E0,2.58498E0,1.9059427E0,2.9079103E1,4.4900236E0,2.0105682E1,4.6776424E1,1.0846303E1,2.2344372E0,6.8645244E0,4.020629E0,1.352172E0,1.7709967E1,1.6055008E0,1.033325E0,1.2217746E0,1.7256382E0,1.8315207E0,5.6814833E0,2.4252234E1,4.8268714E0,1.083933E0,3.4060907E0,1.9074759E1,1.0309243E0,3.704092E1,9.735503E0,7.5432816E0,3.3030212E0,1.0000861E0,5.864438E0,2.590247E0,1.4303819E0],"tree_param":{"num_deleted":"0","num_feature":"33","num_nodes":"53","size_leaf_vector":"1"}},{"base_weights":[2.245204E-2,1.2318437E-1,-5.724033E-1,-3.3393815E-1,2.827762E-1,2.0356558E-1,-7.4559194E-1,-5.63099E-1,1.78839E-1,5.808013E-1,8.829579E-2,-3.445773E-2,5.6632E-1,-1.0551925E0,-3.68237E-1,-7.7593327E-1,-1.9611453E-1,-9.038464E-2,7.526713E-1,3.141699E-1,9.522506E-1,-6.937776E-2,7.468818E-1,6.827385E-3,7.725699E-2,-2.5594005E-2,-1.13022424E-1,-6.219325E-1,4.7568403E-2,-8.6023495E-2,1.8745745E-2,1.5906846E-2,-6.398581E-2,4.4397157E-2,-5.989636E-2,2.2413827E-2,8.944511E-2,4.7178168E-2,-6.2511586E-2,1.0188295E-1,3.1277842E-3,-3.3659168E-2,6.564339E-2,2.9631723E-2,1.059559E-1,3.472417E-3,-8.588364E-2],"categories":[],"categories_nodes":[],"categories_segments":[],"categories_sizes":[],"default_left":[0,0,0,0,0,0,0,0,0,0,0,0,0,0,0,0,0,0,0,0,0,0,0,0,0,0,0,0,0,0,0,0,0,0,0,0,0,0,0,0,0,0,0,0,0,0,0],"id":24,"left_children":[1,3,5,7,9,11,13,15,17,19,21,-1,23,25,27,29,31,33,35,37,39,41,43,-1,-1,-1,-1,45,-1,-1,-1,-1,-1,-1,-1,-1,-1,-1,-1,-1,-1,-1,-1,-1,-1,-1,-1],"loss_changes":[9.635104E0,1.011285E1,3.2820454E0,4.3304996E0,5.8798475E0,1.1964316E0,1.8612165E0,1.8097787E0,1.9028774E0,3.6851425E0,6.604435E0,0E0,2.9738462E-1,3.1294823E-1,2.4828358E0,1.4249868E0,1.7659241E0,2.705497E0,9.1766596E-2,3.9828422E0,9.6871185E-1,1.0272814E1,1.4152341E0,0E0,0E0,0E0,0E0,1.319025E0,0E0,0E0,0E0,0E0,0E0,0E0,0E0,0E0,0E0,0E0,0E0,0E0,0E0,0E0,0E0,0E0,0E0,0E0,0E0],"parents":[2147483647,0,0,1,1,2,2,3,3,4,4,5,5,6,6,7,7,8,8,9,9,10,10,12,12,13,13,14,14,15,15,16,16,17,17,18,18,19,19,20,20,21,21,22,22,27,27],"right_children":[2,4,6,8,10,12,14,16,18,20,22,-1,24,26,28,30,32,34,36,38,40,42,44,-1,-1,-1,-1,46,-1,-1,-1,-1,-1,-1,-1,-1,-1,-1,-1,-1,-1,-1,-1,-1,-1,-1,-1],"split_conditions":[1.3514608E0,-9.141032E-1,-1.0828866E0,1.9348545E0,4.10942E-5,1.0301454E0,-1.4951453E-2,1.7130615E0,2.4954896E0,5.39127E-1,1.9348545E0,-3.445773E-2,2.9261917E-1,-1.2349365E0,1.1724621E0,1.5553497E0,-8.588276E-2,-3.9613825E-1,-6.6413546E-1,1.1924877E0,1.5783503E0,1.7130615E0,-1.8909333E-2,6.827385E-3,7.725699E-2,-2.5594005E-2,-1.13022424E-1,-8.021137E-1,4.7568403E-2,-8.6023495E-2,1.8745745E-2,1.5906846E-2,-6.398581E-2,4.4397157E-2,-5.989636E-2,2.2413827E-2,8.944511E-2,4.7178168E-2,-6.2511586E-2,1.0188295E-1,3.1277842E-3,-3.3659168E-2,6.564339E-2,2.9631723E-2,1.059559E-1,3.472417E-3,-8.588364E-2],"split_indices":[23,22,16,27,24,1,19,26,28,22,27,0,17,4,17,21,24,24,0,4,4,26,16,0,0,0,0,24,0,0,0,0,0,0,0,0,0,0,0,0,0,0,0,0,0,0,0],"split_type":[0,0,0,0,0,0,0,0,0,0,0,0,0,0,0,0,0,0,0,0,0,0,0,0,0,0,0,0,0,0,0,0,0,0,0,0,0,0,0,0,0,0,0,0,0,0,0],"sum_hessian":[1.5861961E2,1.3632703E2,2.2292591E1,3.499567E1,1.0133135E2,4.035628E0,1.8256964E1,2.4118805E1,1.0876864E1,3.922929E1,6.2102062E1,1.627098E0,2.40853E0,9.042097E0,9.214867E0,1.4560203E1,9.558602E0,7.976866E0,2.8999991E0,2.3911255E1,1.5318033E1,5.0827896E1,1.1274164E1,1.0951116E0,1.3134185E0,1.1545627E0,7.8875346E0,7.287252E0,1.9276147E0,1.3487088E1,1.0731137E0,5.6654058E0,3.8931966E0,3.9518023E0,4.0250635E0,1.1592784E0,1.7407206E0,2.0901684E1,3.0095708E0,1.418623E1,1.1318038E0,3.7542538E1,1.3285357E1,5.4165916E0,5.8575726E0,2.1582847E0,5.1289673E0],"tree_param":{"num_deleted":"0","num_feature":"33","num_nodes":"47","size_leaf_vector":"1"}},{"base_weights":[-2.1368766E-2,-1.4549159E-1,4.3776178E-1,-3.5166013E-1,1.7916763E-1,8.232159E-2,8.7358695E-1,-5.423863E-1,1.7910206E-1,-1.912526E-1,4.956714E-1,2.6500902E-1,-8.0537117E-1,9.6675533E-1,-1.5065116E-2,-6.9327986E-1,2.5853294E-1,-5.368556E-1,4.794045E-1,2.7946818E-1,-6.732608E-1,7.01162E-2,7.3824096E-1,-7.0732504E-2,7.016509E-1,-1.5636069E-1,2.9813204E-2,1.8167289E-2,1.0221119E0,-2.9790837E-2,-1.05757825E-1,-8.5395984E-2,6.620384E-2,-8.795759E-2,-5.079127E-3,7.2877675E-2,-2.8176283E-2,6.075117E-2,-2.3372082E-2,-1.7518237E-2,-1.0764133E-1,-5.60362E-2,4.3444764E-2,-9.659695E-3,9.269739E-2,3.1336237E-2,-4.9899787E-2,-4.2017308E-4,9.730491E-2,1.0800914E-1,2.1581009E-2],"categories":[],"categories_nodes":[],"categories_segments":[],"categories_sizes":[],"default_left":[0,0,0,0,0,0,0,0,0,0,0,0,0,0,0,0,0,0,0,0,0,0,0,0,0,0,0,0,0,0,0,0,0,0,0,0,0,0,0,0,0,0,0,0,0,0,0,0,0,0,0],"id":25,"left_children":[1,3,5,7,9,11,13,15,17,19,21,23,25,27,-1,29,31,33,35,37,39,41,43,45,47,-1,-1,-1,49,-1,-1,-1,-1,-1,-1,-1,-1,-1,-1,-1,-1,-1,-1,-1,-1,-1,-1,-1,-1,-1,-1],"loss_changes":[9.102924E0,8.470678E0,5.1957073E0,7.9082727E0,5.892097E0,3.4298403E0,1.5933542E0,7.0693836E0,4.80462E0,5.5212755E0,2.729497E0,2.571254E0,3.5056782E0,4.2451763E-1,0E0,6.6339207E0,4.9496017E0,1.0750031E0,3.133835E0,2.2629232E0,2.202312E0,2.744214E0,2.776949E0,1.9053334E0,1.4539618E0,0E0,0E0,0E0,3.6995697E-1,0E0,0E0,0E0,0E0,0E0,0E0,0E0,0E0,0E0,0E0,0E0,0E0,0E0,0E0,0E0,0E0,0E0,0E0,0E0,0E0,0E0,0E0],"parents":[2147483647,0,0,1,1,2,2,3,3,4,4,5,5,6,6,7,7,8,8,9,9,10,10,11,11,12,12,13,13,15,15,16,16,17,17,18,18,19,19,20,20,21,21,22,22,23,23,24,24,28,28],"right_children":[2,4,6,8,10,12,14,16,18,20,22,24,26,28,-1,30,32,34,36,38,40,42,44,46,48,-1,-1,-1,50,-1,-1,-1,-1,-1,-1,-1,-1,-1,-1,-1,-1,-1,-1,-1,-1,-1,-1,-1,-1,-1,-1],"split_conditions":[1.9348545E0,1.1445583E0,-8.115209E-2,1.7130615E0,-2.7193043E-1,1.5323665E0,1.5146799E0,2.4954896E0,-9.275034E-1,4.10942E-5,-8.3698213E-1,-9.753966E-1,2.1841714E-1,-1.3336326E0,-1.5065116E-2,9.7936735E-2,-7.5329405E-1,2.8508416E-1,1.2554772E0,2.6701784E-1,3.2533996E-2,-4.6991134E-1,-1.0261304E0,-1.5486443E-1,-9.2482275E-1,-1.5636069E-1,2.9813204E-2,1.8167289E-2,1.3969728E0,-2.9790837E-2,-1.05757825E-1,-8.5395984E-2,6.620384E-2,-8.795759E-2,-5.079127E-3,7.2877675E-2,-2.8176283E-2,6.075117E-2,-2.3372082E-2,-1.7518237E-2,-1.0764133E-1,-5.60362E-2,4.3444764E-2,-9.659695E-3,9.269739E-2,3.1336237E-2,-4.9899787E-2,-4.2017308E-4,9.730491E-2,1.0800914E-1,2.1581009E-2],"split_indices":[27,25,22,26,22,9,23,28,22,24,0,22,8,4,0,24,22,16,23,9,20,17,9,24,18,0,0,0,24,0,0,0,0,0,0,0,0,0,0,0,0,0,0,0,0,0,0,0,0,0,0],"split_type":[0,0,0,0,0,0,0,0,0,0,0,0,0,0,0,0,0,0,0,0,0,0,0,0,0,0,0,0,0,0,0,0,0,0,0,0,0,0,0,0,0,0,0,0,0,0,0,0,0,0,0],"sum_hessian":[1.5761485E2,1.246104E2,3.300446E1,7.616202E1,4.844838E1,1.883353E1,1.4170928E1,5.60124E1,2.0149616E1,2.2505177E1,2.5943205E1,1.6200853E1,2.6326768E0,1.3040811E1,1.1301166E0,4.724569E1,8.766714E0,5.7213955E0,1.4428221E1,1.1598493E1,1.0906684E1,9.886953E0,1.6056252E1,9.632367E0,6.568486E0,1.3133227E0,1.3193543E0,1.1409811E0,1.189983E1,2.3528294E1,2.3717394E1,2.0362573E0,6.730457E0,2.8806694E0,2.8407261E0,1.0899801E1,3.5284197E0,6.9634686E0,4.635024E0,5.520662E0,5.386022E0,3.4238687E0,6.4630847E0,3.0505745E0,1.3005677E1,5.2194977E0,4.41287E0,2.0975902E0,4.470896E0,1.07847595E1,1.11507E0],"tree_param":{"num_deleted":"0","num_feature":"33","num_nodes":"51","size_leaf_vector":"1"}},{"base_weights":[1.79011E-2,-8.8120654E-2,6.487207E-1,-2.8902355E-1,2.2695035E-1,7.270262E-1,-4.7417354E-2,-6.535567E-1,-9.5944166E-2,-3.3601427E-1,4.711944E-1,8.8457125E-1,-8.184001E-2,-8.149191E-1,3.0239558E-1,-4.2400342E-1,1.3064128E-1,-6.04938E-1,2.3661749E-1,8.081593E-1,5.8483344E-2,9.021492E-2,1.0409137E0,3.642005E-1,-7.160601E-2,-9.9260196E-2,8.217648E-3,5.8723446E-2,-1.3363096E-2,5.773445E-2,-5.230865E-2,-8.105297E-3,8.635922E-2,-9.4172835E-2,-8.045667E-4,6.4043894E-2,-4.6161436E-2,9.595453E-3,9.13869E-2,3.04146E-2,-9.1151826E-2,4.313845E-2,-3.5703607E-2,2.7603263E-2,1.09430745E-1,-1.8389782E-2,7.080405E-2],"categories":[],"categories_nodes":[],"categories_segments":[],"categories_sizes":[],"default_left":[0,0,0,0,0,0,0,0,0,0,0,0,0,0,0,0,0,0,0,0,0,0,0,0,0,0,0,0,0,0,0,0,0,0,0,0,0,0,0,0,0,0,0,0,0,0,0],"id":26,"left_children":[1,3,5,7,9,11,-1,13,15,17,19,21,23,25,27,29,31,33,35,37,39,41,43,45,-1,-1,-1,-1,-1,-1,-1,-1,-1,-1,-1,-1,-1,-1,-1,-1,-1,-1,-1,-1,-1,-1,-1],"loss_changes":[9.979078E0,8.160675E0,2.2321796E0,5.4646773E0,7.0821877E0,2.6797972E0,0E0,4.414468E0,3.958753E0,2.5793433E0,4.8945537E0,2.0434465E0,1.4633124E0,3.8097153E0,6.537112E-1,2.453784E0,5.0078197E0,2.212947E0,1.9237444E0,1.3792515E0,4.3402033E0,7.529443E-1,2.8133297E-1,7.2546124E-1,0E0,0E0,0E0,0E0,0E0,0E0,0E0,0E0,0E0,0E0,0E0,0E0,0E0,0E0,0E0,0E0,0E0,0E0,0E0,0E0,0E0,0E0,0E0],"parents":[2147483647,0,0,1,1,2,2,3,3,4,4,5,5,7,7,8,8,9,9,10,10,11,11,12,12,13,13,14,14,15,15,16,16,17,17,18,18,19,19,20,20,21,21,22,22,23,23],"right_children":[2,4,6,8,10,12,-1,14,16,18,20,22,24,26,28,30,32,34,36,38,40,42,44,46,-1,-1,-1,-1,-1,-1,-1,-1,-1,-1,-1,-1,-1,-1,-1,-1,-1,-1,-1,-1,-1,-1,-1],"split_conditions":[2.4954896E0,1.1445583E0,1.557554E0,-7.505588E-1,-8.6365116E-1,1.2841511E0,-4.7417354E-2,2.4120145E0,-2.7193043E-1,1.7130615E0,4.2000327E-1,-3.774372E-1,-2.3201889E-1,2.4120145E0,3.1071627E-1,-1.6307786E0,1.9348545E0,1.9348545E0,5.608846E-1,-1.4528188E0,1.0918145E0,6.8287957E-1,-1.2534753E0,-4.8849097E-1,-7.160601E-2,-9.9260196E-2,8.217648E-3,5.8723446E-2,-1.3363096E-2,5.773445E-2,-5.230865E-2,-8.105297E-3,8.635922E-2,-9.4172835E-2,-8.045667E-4,6.4043894E-2,-4.6161436E-2,9.595453E-3,9.13869E-2,3.04146E-2,-9.1151826E-2,4.313845E-2,-3.5703607E-2,2.7603263E-2,1.09430745E-1,-1.8389782E-2,7.080405E-2],"split_indices":[28,25,8,0,22,23,0,10,22,26,24,3,0,13,8,9,27,27,24,24,7,24,8,7,0,0,0,0,0,0,0,0,0,0,0,0,0,0,0,0,0,0,0,0,0,0,0],"split_type":[0,0,0,0,0,0,0,0,0,0,0,0,0,0,0,0,0,0,0,0,0,0,0,0,0,0,0,0,0,0,0,0,0,0,0,0,0,0,0,0,0,0,0,0,0,0,0],"sum_hessian":[1.4735263E2,1.26887054E2,2.046558E1,7.753198E1,4.9355072E1,1.9461E1,1.004579E0,2.6020489E1,5.1511494E1,1.4820098E1,3.4534973E1,1.621012E1,3.2508821E0,2.2388838E1,3.6316502E0,2.0687723E1,3.0823769E1,1.0045865E1,4.774233E0,1.8484676E1,1.6050297E1,2.9250977E0,1.3285021E1,2.1585479E0,1.0923342E0,1.8598644E1,3.790193E0,1.9869007E0,1.6447495E0,1.4281152E0,1.925961E1,2.4606283E1,6.217485E0,6.0528736E0,3.9929914E0,3.077269E0,1.696964E0,2.6355731E0,1.5849103E1,1.3354567E1,2.6957302E0,1.6794583E0,1.2456396E0,1.2694554E0,1.2015566E1,1.0114346E0,1.1471134E0],"tree_param":{"num_deleted":"0","num_feature":"33","num_nodes":"47","size_leaf_vector":"1"}},{"base_weights":[3.21515E-2,1.5230983E-1,-5.0322807E-1,4.7842848E-1,-5.2016772E-2,-7.454292E-1,-4.9651477E-2,1.1671031E-1,8.8623625E-1,-1.8533233E-1,4.6066433E-1,-3.0091736E-1,-1.1072369E0,-7.3619E-1,3.234735E-1,-4.2225242E-1,3.3204624E-1,9.9851245E-1,2.1967229E-1,-3.053969E-1,5.8278805E-1,-3.3305827E-1,6.363815E-1,-5.4480565E-1,3.837914E-1,-1.7371057E-2,-1.2112091E-1,-1.4427203E-2,-8.88172E-2,-4.2123314E-2,6.418467E-1,-7.3789895E-2,1.5001795E-2,6.6732927E-3,8.0435745E-2,1.0414483E-1,1.4309244E-2,-6.872211E-2,7.594292E-2,-7.182558E-2,-9.933437E-3,-1.0092687E-3,8.322127E-2,1.7731616E-2,-6.62007E-2,-1.6849698E-2,7.396889E-2,-8.2949035E-2,8.231022E-3,6.930836E-2,-1.0115934E-2,8.59842E-2,-1.0566939E-2],"categories":[],"categories_nodes":[],"categories_segments":[],"categories_sizes":[],"default_left":[0,0,0,0,0,0,0,0,0,0,0,0,0,0,0,0,0,0,0,0,0,0,0,0,0,0,0,0,0,0,0,0,0,0,0,0,0,0,0,0,0,0,0,0,0,0,0,0,0,0,0,0,0],"id":27,"left_children":[1,3,5,7,9,11,13,15,17,19,21,23,25,27,29,31,33,35,37,39,41,43,45,47,49,-1,-1,-1,-1,-1,51,-1,-1,-1,-1,-1,-1,-1,-1,-1,-1,-1,-1,-1,-1,-1,-1,-1,-1,-1,-1,-1,-1],"loss_changes":[9.810864E0,8.31078E0,3.0354848E0,6.976633E0,5.3722105E0,2.587617E0,3.0065424E0,3.225884E0,1.4577503E0,5.9052124E0,2.4783552E0,1.799251E0,7.251415E-1,2.4165702E-1,2.0951655E0,1.5612559E0,2.3970244E0,5.4501915E-1,2.7307925E0,4.553536E0,1.3006668E0,7.220908E-1,1.2594781E0,1.395591E0,5.332349E-1,0E0,0E0,0E0,0E0,0E0,1.0340059E0,0E0,0E0,0E0,0E0,0E0,0E0,0E0,0E0,0E0,0E0,0E0,0E0,0E0,0E0,0E0,0E0,0E0,0E0,0E0,0E0,0E0,0E0],"parents":[2147483647,0,0,1,1,2,2,3,3,4,4,5,5,6,6,7,7,8,8,9,9,10,10,11,11,12,12,13,13,14,14,15,15,16,16,17,17,18,18,19,19,20,20,21,21,22,22,23,23,24,24,30,30],"right_children":[2,4,6,8,10,12,14,16,18,20,22,24,26,28,30,32,34,36,38,40,42,44,46,48,50,-1,-1,-1,-1,-1,52,-1,-1,-1,-1,-1,-1,-1,-1,-1,-1,-1,-1,-1,-1,-1,-1,-1,-1,-1,-1,-1,-1],"split_conditions":[1.2554772E0,-1.6455394E-1,2.8648072E-1,-3.1076723E-1,2.002974E0,-2.742448E-2,-4.1125515E-1,-8.3698213E-1,1.1733932E0,2.4954896E0,-9.363413E-1,2.002974E0,-9.949941E-1,-4.6173808E-1,-6.375571E-1,3.3141214E-1,1.7130615E0,1.6417116E0,-1.3454169E0,-7.505588E-1,-9.275034E-1,2.9261917E-1,-1.4682873E0,6.0757405E-1,1.4169195E0,-1.7371057E-2,-1.2112091E-1,-1.4427203E-2,-8.88172E-2,-4.2123314E-2,7.114134E-1,-7.3789895E-2,1.5001795E-2,6.6732927E-3,8.0435745E-2,1.0414483E-1,1.4309244E-2,-6.872211E-2,7.594292E-2,-7.182558E-2,-9.933437E-3,-1.0092687E-3,8.322127E-2,1.7731616E-2,-6.62007E-2,-1.6849698E-2,7.396889E-2,-8.2949035E-2,8.231022E-3,6.930836E-2,-1.0115934E-2,8.59842E-2,-1.0566939E-2],"split_indices":[23,24,21,22,14,24,17,0,4,28,22,14,9,18,4,4,26,17,24,0,22,17,18,4,23,0,0,0,0,0,7,0,0,0,0,0,0,0,0,0,0,0,0,0,0,0,0,0,0,0,0,0,0],"split_type":[0,0,0,0,0,0,0,0,0,0,0,0,0,0,0,0,0,0,0,0,0,0,0,0,0,0,0,0,0,0,0,0,0,0,0,0,0,0,0,0,0,0,0,0,0,0,0,0,0,0,0,0,0],"sum_hessian":[1.503162E2,1.2334799E2,2.6968195E1,4.6996696E1,7.6351295E1,1.7161068E1,9.807127E0,2.5587358E1,2.1409338E1,6.110127E1,1.5250027E1,8.522344E0,8.638724E0,3.1106281E0,6.696499E0,7.0303197E0,1.8557037E1,1.78968E1,3.5125394E0,5.336259E1,7.738676E0,2.6018643E0,1.2648162E1,6.434682E0,2.0876617E0,1.13337E0,7.5053544E0,1.033759E0,2.0768692E0,1.9087238E0,4.787775E0,4.344568E0,2.685752E0,1.2613113E1,5.943925E0,1.6834368E1,1.0624317E0,1.208622E0,2.3039174E0,1.6938885E1,3.6423706E1,2.5757267E0,5.162949E0,1.200387E0,1.4014773E0,1.3669655E0,1.1281197E1,4.2036786E0,2.231003E0,1.0126374E0,1.0750244E0,3.5904424E0,1.1973329E0],"tree_param":{"num_deleted":"0","num_feature":"33","num_nodes":"53","size_leaf_vector":"1"}},